<?xml version="1.0"?>
<opencv_storage>
<cascade>
  <stageType>BOOST</stageType>
  <featureType>HAAR</featureType>
  <height>18</height>
  <width>32</width>
  <stageParams>
    <boostType>GAB</boostType>
    <minHitRate>9.9989998340606689e-001</minHitRate>
    <maxFalseAlarm>5.0000000000000000e-001</maxFalseAlarm>
    <weightTrimRate>9.4999999999999996e-001</weightTrimRate>
    <maxDepth>1</maxDepth>
    <maxWeakCount>100</maxWeakCount></stageParams>
  <featureParams>
    <maxCatCount>0</maxCatCount>
    <featSize>1</featSize>
    <mode>ALL</mode></featureParams>
  <stageNum>15</stageNum>
  <stages>
    <!-- stage 0 -->
    <_>
      <maxWeakCount>3</maxWeakCount>
      <stageThreshold>-1.2072794437408447e+000</stageThreshold>
      <weakClassifiers>
        <_>
          <internalNodes>
            0 -1 31 1.8475723266601563e-001</internalNodes>
          <leafValues>
            -9.4999998807907104e-001 9.5652174949645996e-001</leafValues></_>
        <_>
          <internalNodes>
            0 -1 43 -2.3404411971569061e-002</internalNodes>
          <leafValues>
            5.9900033473968506e-001 -8.9963734149932861e-001</leafValues></_>
        <_>
          <internalNodes>
            0 -1 12 5.1606580615043640e-002</internalNodes>
          <leafValues>
            -7.3887282609939575e-001 6.4235788583755493e-001</leafValues></_></weakClassifiers></_>
    <!-- stage 1 -->
    <_>
      <maxWeakCount>5</maxWeakCount>
      <stageThreshold>-1.5578258037567139e+000</stageThreshold>
      <weakClassifiers>
        <_>
          <internalNodes>
            0 -1 1 4.5955514907836914e-001</internalNodes>
          <leafValues>
            -9.3928569555282593e-001 8.2608693838119507e-001</leafValues></_>
        <_>
          <internalNodes>
            0 -1 20 -1.0989499837160110e-001</internalNodes>
          <leafValues>
            4.7033375501632690e-001 -7.8566426038742065e-001</leafValues></_>
        <_>
          <internalNodes>
            0 -1 51 -1.3832092285156250e-002</internalNodes>
          <leafValues>
            5.1895916461944580e-001 -6.7699229717254639e-001</leafValues></_>
        <_>
          <internalNodes>
            0 -1 46 1.4502380508929491e-004</internalNodes>
          <leafValues>
            2.9617050290107727e-001 -1.</leafValues></_>
        <_>
          <internalNodes>
            0 -1 3 -9.7437016665935516e-003</internalNodes>
          <leafValues>
            5.4794597625732422e-001 -6.3033151626586914e-001</leafValues></_></weakClassifiers></_>
    <!-- stage 2 -->
    <_>
      <maxWeakCount>5</maxWeakCount>
      <stageThreshold>-1.8458663225173950e+000</stageThreshold>
      <weakClassifiers>
        <_>
          <internalNodes>
            0 -1 42 1.4396144449710846e-001</internalNodes>
          <leafValues>
            -8.9254766702651978e-001 9.3103450536727905e-001</leafValues></_>
        <_>
          <internalNodes>
            0 -1 13 3.7960028648376465e-001</internalNodes>
          <leafValues>
            -7.6654177904129028e-001 8.2292735576629639e-001</leafValues></_>
        <_>
          <internalNodes>
            0 -1 46 -2.6158092077821493e-004</internalNodes>
          <leafValues>
            -8.7143403291702271e-001 4.6319574117660522e-001</leafValues></_>
        <_>
          <internalNodes>
            0 -1 32 3.0469424091279507e-003</internalNodes>
          <leafValues>
            4.0249061584472656e-001 -8.4540671110153198e-001</leafValues></_>
        <_>
          <internalNodes>
            0 -1 0 -3.6616151919588447e-004</internalNodes>
          <leafValues>
            -1. 2.8216648101806641e-001</leafValues></_></weakClassifiers></_>
    <!-- stage 3 -->
    <_>
      <maxWeakCount>4</maxWeakCount>
      <stageThreshold>-1.1426615715026855e+000</stageThreshold>
      <weakClassifiers>
        <_>
          <internalNodes>
            0 -1 25 5.2944016456604004e-001</internalNodes>
          <leafValues>
            -9.0070921182632446e-001 4.7619047760963440e-001</leafValues></_>
        <_>
          <internalNodes>
            0 -1 53 9.4498515129089355e-002</internalNodes>
          <leafValues>
            -6.6373318433761597e-001 5.3818213939666748e-001</leafValues></_>
        <_>
          <internalNodes>
            0 -1 29 -6.6866385168395936e-005</internalNodes>
          <leafValues>
            -1. 2.1007177233695984e-001</leafValues></_>
        <_>
          <internalNodes>
            0 -1 41 -1.2977072037756443e-004</internalNodes>
          <leafValues>
            -9.5878404378890991e-001 2.1170903742313385e-001</leafValues></_></weakClassifiers></_>
    <!-- stage 4 -->
    <_>
      <maxWeakCount>4</maxWeakCount>
      <stageThreshold>-1.9118430614471436e+000</stageThreshold>
      <weakClassifiers>
        <_>
          <internalNodes>
            0 -1 54 1.0344137251377106e-001</internalNodes>
          <leafValues>
            -9.3784278631210327e-001 4.2372882366180420e-001</leafValues></_>
        <_>
          <internalNodes>
            0 -1 9 4.3857234716415405e-001</internalNodes>
          <leafValues>
            -7.3174959421157837e-001 4.4974154233932495e-001</leafValues></_>
        <_>
          <internalNodes>
            0 -1 48 -2.1737836301326752e-002</internalNodes>
          <leafValues>
            5.6303679943084717e-001 -6.1917299032211304e-001</leafValues></_>
        <_>
          <internalNodes>
            0 -1 36 2.6002892991527915e-004</internalNodes>
          <leafValues>
            3.7692230939865112e-001 -9.5650446414947510e-001</leafValues></_></weakClassifiers></_>
    <!-- stage 5 -->
    <_>
      <maxWeakCount>3</maxWeakCount>
      <stageThreshold>-1.2409405708312988e+000</stageThreshold>
      <weakClassifiers>
        <_>
          <internalNodes>
            0 -1 35 1.7322526872158051e-001</internalNodes>
          <leafValues>
            -8.9824563264846802e-001 6.6666668653488159e-001</leafValues></_>
        <_>
          <internalNodes>
            0 -1 2 5.1671338081359863e-001</internalNodes>
          <leafValues>
            -6.8431359529495239e-001 8.0339539051055908e-001</leafValues></_>
        <_>
          <internalNodes>
            0 -1 37 -1.4914816711097956e-004</internalNodes>
          <leafValues>
            -9.1665261983871460e-001 3.4161865711212158e-001</leafValues></_></weakClassifiers></_>
    <!-- stage 6 -->
    <_>
      <maxWeakCount>4</maxWeakCount>
      <stageThreshold>-1.0502860546112061e+000</stageThreshold>
      <weakClassifiers>
        <_>
          <internalNodes>
            0 -1 5 2.5932794809341431e-001</internalNodes>
          <leafValues>
            -8.6371380090713501e-001 1.</leafValues></_>
        <_>
          <internalNodes>
            0 -1 4 2.5279790163040161e-001</internalNodes>
          <leafValues>
            -7.4610304832458496e-001 5.5080586671829224e-001</leafValues></_>
        <_>
          <internalNodes>
            0 -1 34 6.3372903969138861e-004</internalNodes>
          <leafValues>
            2.9148900508880615e-001 -1.</leafValues></_>
        <_>
          <internalNodes>
            0 -1 47 -1.3430422404780984e-004</internalNodes>
          <leafValues>
            -1. 2.6804178953170776e-001</leafValues></_></weakClassifiers></_>
    <!-- stage 7 -->
    <_>
      <maxWeakCount>5</maxWeakCount>
      <stageThreshold>-1.9546904563903809e+000</stageThreshold>
      <weakClassifiers>
        <_>
          <internalNodes>
            0 -1 50 -4.2259767651557922e-002</internalNodes>
          <leafValues>
            2.0754717290401459e-001 -9.0235084295272827e-001</leafValues></_>
        <_>
          <internalNodes>
            0 -1 21 -4.2496401816606522e-002</internalNodes>
          <leafValues>
            3.4799915552139282e-001 -7.4618571996688843e-001</leafValues></_>
        <_>
          <internalNodes>
            0 -1 26 -2.6441173395141959e-004</internalNodes>
          <leafValues>
            3.0206099152565002e-001 -7.4549305438995361e-001</leafValues></_>
        <_>
          <internalNodes>
            0 -1 22 -4.9566914094612002e-004</internalNodes>
          <leafValues>
            -9.8358434438705444e-001 2.3373414576053619e-001</leafValues></_>
        <_>
          <internalNodes>
            0 -1 45 1.1183385504409671e-004</internalNodes>
          <leafValues>
            2.0560501515865326e-001 -1.</leafValues></_></weakClassifiers></_>
    <!-- stage 8 -->
    <_>
      <maxWeakCount>3</maxWeakCount>
      <stageThreshold>-1.2982717752456665e+000</stageThreshold>
      <weakClassifiers>
        <_>
          <internalNodes>
            0 -1 14 1.9014552235603333e-001</internalNodes>
          <leafValues>
            -9.0357142686843872e-001 3.9130434393882751e-001</leafValues></_>
        <_>
          <internalNodes>
            0 -1 49 -1.9619749858975410e-002</internalNodes>
          <leafValues>
            4.0002748370170593e-001 -8.2238781452178955e-001</leafValues></_>
        <_>
          <internalNodes>
            0 -1 19 9.6916977781802416e-005</internalNodes>
          <leafValues>
            -7.6725393533706665e-001 4.2768749594688416e-001</leafValues></_></weakClassifiers></_>
    <!-- stage 9 -->
    <_>
      <maxWeakCount>5</maxWeakCount>
      <stageThreshold>-1.6240162849426270e+000</stageThreshold>
      <weakClassifiers>
        <_>
          <internalNodes>
            0 -1 18 5.9130273759365082e-002</internalNodes>
          <leafValues>
            -8.5109984874725342e-001 1.</leafValues></_>
        <_>
          <internalNodes>
            0 -1 27 -1.9095906754955649e-003</internalNodes>
          <leafValues>
            7.4527606368064880e-002 -8.8448822498321533e-001</leafValues></_>
        <_>
          <internalNodes>
            0 -1 55 -3.9342232048511505e-003</internalNodes>
          <leafValues>
            4.5745867490768433e-001 -6.2757378816604614e-001</leafValues></_>
        <_>
          <internalNodes>
            0 -1 10 -1.5190561534836888e-003</internalNodes>
          <leafValues>
            5.5631047487258911e-001 -5.1452714204788208e-001</leafValues></_>
        <_>
          <internalNodes>
            0 -1 11 5.7332043070346117e-004</internalNodes>
          <leafValues>
            2.9465684294700623e-001 -9.8537957668304443e-001</leafValues></_></weakClassifiers></_>
    <!-- stage 10 -->
    <_>
      <maxWeakCount>5</maxWeakCount>
      <stageThreshold>-1.7953784465789795e+000</stageThreshold>
      <weakClassifiers>
        <_>
          <internalNodes>
            0 -1 28 -1.2241558730602264e-001</internalNodes>
          <leafValues>
            6.3636362552642822e-001 -8.5958904027938843e-001</leafValues></_>
        <_>
          <internalNodes>
            0 -1 56 2.1350754424929619e-002</internalNodes>
          <leafValues>
            -6.7440110445022583e-001 3.3214831352233887e-001</leafValues></_>
        <_>
          <internalNodes>
            0 -1 38 1.6522244550287724e-004</internalNodes>
          <leafValues>
            2.2510005533695221e-001 -8.4436577558517456e-001</leafValues></_>
        <_>
          <internalNodes>
            0 -1 8 1.0632282355800271e-003</internalNodes>
          <leafValues>
            2.9670098423957825e-001 -7.3640507459640503e-001</leafValues></_>
        <_>
          <internalNodes>
            0 -1 45 -2.4611240951344371e-004</internalNodes>
          <leafValues>
            -1. 2.8627640008926392e-001</leafValues></_></weakClassifiers></_>
    <!-- stage 11 -->
    <_>
      <maxWeakCount>4</maxWeakCount>
      <stageThreshold>-2.0672428607940674e+000</stageThreshold>
      <weakClassifiers>
        <_>
          <internalNodes>
            0 -1 40 2.5931729003787041e-002</internalNodes>
          <leafValues>
            -8.7197232246398926e-001 5.7142859697341919e-001</leafValues></_>
        <_>
          <internalNodes>
            0 -1 23 -1.4871562598273158e-005</internalNodes>
          <leafValues>
            2.9835739731788635e-001 -7.5156897306442261e-001</leafValues></_>
        <_>
          <internalNodes>
            0 -1 39 5.2851915359497070e-002</internalNodes>
          <leafValues>
            2.3410557210445404e-001 -9.1294270753860474e-001</leafValues></_>
        <_>
          <internalNodes>
            0 -1 15 -2.8961303178220987e-004</internalNodes>
          <leafValues>
            4.3001276254653931e-001 -6.7780727148056030e-001</leafValues></_></weakClassifiers></_>
    <!-- stage 12 -->
    <_>
      <maxWeakCount>3</maxWeakCount>
      <stageThreshold>-1.4481142759323120e+000</stageThreshold>
      <weakClassifiers>
        <_>
          <internalNodes>
            0 -1 44 8.7338872253894806e-003</internalNodes>
          <leafValues>
            -8.8318586349487305e-001 2.6829269528388977e-001</leafValues></_>
        <_>
          <internalNodes>
            0 -1 6 -1.4944400390959345e-005</internalNodes>
          <leafValues>
            1.5222024917602539e-001 -9.1095626354217529e-001</leafValues></_>
        <_>
          <internalNodes>
            0 -1 24 -8.9481147006154060e-004</internalNodes>
          <leafValues>
            3.9269301295280457e-001 -7.1714866161346436e-001</leafValues></_></weakClassifiers></_>
    <!-- stage 13 -->
    <_>
      <maxWeakCount>4</maxWeakCount>
      <stageThreshold>-1.3053722381591797e+000</stageThreshold>
      <weakClassifiers>
        <_>
          <internalNodes>
            0 -1 33 -1.6864709556102753e-002</internalNodes>
          <leafValues>
            7.7777779102325439e-001 -8.5374146699905396e-001</leafValues></_>
        <_>
          <internalNodes>
            0 -1 7 -3.4768320620059967e-004</internalNodes>
          <leafValues>
            -8.5494476556777954e-001 1.2429353594779968e-001</leafValues></_>
        <_>
          <internalNodes>
            0 -1 17 1.2990311006433330e-005</internalNodes>
          <leafValues>
            -8.2370477914810181e-001 3.1277891993522644e-001</leafValues></_>
        <_>
          <internalNodes>
            0 -1 52 -8.6145271779969335e-005</internalNodes>
          <leafValues>
            2.5168401002883911e-001 -8.8870328664779663e-001</leafValues></_></weakClassifiers></_>
    <!-- stage 14 -->
    <_>
      <maxWeakCount>2</maxWeakCount>
      <stageThreshold>-2.6677942276000977e-001</stageThreshold>
      <weakClassifiers>
        <_>
          <internalNodes>
            0 -1 30 -3.0196289299055934e-004</internalNodes>
          <leafValues>
            -9.9257886409759521e-001 7.0149254798889160e-001</leafValues></_>
        <_>
          <internalNodes>
            0 -1 16 3.4533243160694838e-004</internalNodes>
          <leafValues>
            7.7275198698043823e-001 -9.6827197074890137e-001</leafValues></_></weakClassifiers></_></stages>
  <features>
    <_>
      <rects>
        <_>
          0 0 24 1 -1.</_>
        <_>
          8 0 8 1 3.</_></rects>
      <tilted>0</tilted></_>
    <_>
      <rects>
        <_>
          0 2 23 15 -1.</_>
        <_>
          0 7 23 5 3.</_></rects>
      <tilted>0</tilted></_>
    <_>
      <rects>
        <_>
          0 2 26 12 -1.</_>
        <_>
          0 6 26 4 3.</_></rects>
      <tilted>0</tilted></_>
    <_>
      <rects>
        <_>
          0 10 14 3 -1.</_>
        <_>
          7 10 7 3 2.</_></rects>
      <tilted>0</tilted></_>
    <_>
      <rects>
        <_>
          1 2 16 12 -1.</_>
        <_>
          1 5 16 6 2.</_></rects>
      <tilted>0</tilted></_>
    <_>
      <rects>
        <_>
          1 5 16 12 -1.</_>
        <_>
          1 8 16 6 2.</_></rects>
      <tilted>0</tilted></_>
    <_>
      <rects>
        <_>
          1 11 6 1 -1.</_>
        <_>
          4 11 3 1 2.</_></rects>
      <tilted>0</tilted></_>
    <_>
      <rects>
        <_>
          2 0 12 3 -1.</_>
        <_>
          6 1 4 1 9.</_></rects>
      <tilted>0</tilted></_>
    <_>
      <rects>
        <_>
          2 0 14 2 -1.</_>
        <_>
          2 0 14 1 2.</_></rects>
      <tilted>1</tilted></_>
    <_>
      <rects>
        <_>
          2 1 24 16 -1.</_>
        <_>
          2 5 24 8 2.</_></rects>
      <tilted>0</tilted></_>
    <_>
      <rects>
        <_>
          2 12 2 2 -1.</_>
        <_>
          2 13 2 1 2.</_></rects>
      <tilted>0</tilted></_>
    <_>
      <rects>
        <_>
          3 0 9 3 -1.</_>
        <_>
          6 1 3 1 9.</_></rects>
      <tilted>0</tilted></_>
    <_>
      <rects>
        <_>
          3 1 5 12 -1.</_>
        <_>
          3 5 5 4 3.</_></rects>
      <tilted>0</tilted></_>
    <_>
      <rects>
        <_>
          3 1 26 12 -1.</_>
        <_>
          3 4 26 6 2.</_></rects>
      <tilted>0</tilted></_>
    <_>
      <rects>
        <_>
          3 2 9 16 -1.</_>
        <_>
          3 6 9 8 2.</_></rects>
      <tilted>0</tilted></_>
    <_>
      <rects>
        <_>
          3 10 4 1 -1.</_>
        <_>
          5 10 2 1 2.</_></rects>
      <tilted>0</tilted></_>
    <_>
      <rects>
        <_>
          3 13 8 5 -1.</_>
        <_>
          5 13 4 5 2.</_></rects>
      <tilted>0</tilted></_>
    <_>
      <rects>
        <_>
          4 3 3 9 -1.</_>
        <_>
          5 3 1 9 3.</_></rects>
      <tilted>0</tilted></_>
    <_>
      <rects>
        <_>
          4 6 3 12 -1.</_>
        <_>
          4 9 3 6 2.</_></rects>
      <tilted>0</tilted></_>
    <_>
      <rects>
        <_>
          5 0 6 8 -1.</_>
        <_>
          7 0 2 8 3.</_></rects>
      <tilted>0</tilted></_>
    <_>
      <rects>
        <_>
          5 7 13 6 -1.</_>
        <_>
          5 10 13 3 2.</_></rects>
      <tilted>0</tilted></_>
    <_>
      <rects>
        <_>
          6 4 20 14 -1.</_>
        <_>
          11 4 10 14 2.</_></rects>
      <tilted>0</tilted></_>
    <_>
      <rects>
        <_>
          8 0 9 4 -1.</_>
        <_>
          11 0 3 4 3.</_></rects>
      <tilted>0</tilted></_>
    <_>
      <rects>
        <_>
          8 1 4 3 -1.</_>
        <_>
          10 1 2 3 2.</_></rects>
      <tilted>0</tilted></_>
    <_>
      <rects>
        <_>
          9 1 2 16 -1.</_>
        <_>
          10 1 1 16 2.</_></rects>
      <tilted>0</tilted></_>
    <_>
      <rects>
        <_>
          9 1 17 15 -1.</_>
        <_>
          9 6 17 5 3.</_></rects>
      <tilted>0</tilted></_>
    <_>
      <rects>
        <_>
          9 7 2 6 -1.</_>
        <_>
          9 7 1 3 2.</_>
        <_>
          10 10 1 3 2.</_></rects>
      <tilted>0</tilted></_>
    <_>
      <rects>
        <_>
          9 8 4 2 -1.</_>
        <_>
          9 9 4 1 2.</_></rects>
      <tilted>0</tilted></_>
    <_>
      <rects>
        <_>
          10 1 4 10 -1.</_>
        <_>
          10 1 4 5 2.</_></rects>
      <tilted>1</tilted></_>
    <_>
      <rects>
        <_>
          10 16 4 1 -1.</_>
        <_>
          11 16 2 1 2.</_></rects>
      <tilted>0</tilted></_>
    <_>
      <rects>
        <_>
          11 0 8 4 -1.</_>
        <_>
          11 0 4 2 2.</_>
        <_>
          15 2 4 2 2.</_></rects>
      <tilted>0</tilted></_>
    <_>
      <rects>
        <_>
          11 2 14 12 -1.</_>
        <_>
          11 5 14 6 2.</_></rects>
      <tilted>0</tilted></_>
    <_>
      <rects>
        <_>
          11 3 13 2 -1.</_>
        <_>
          11 3 13 1 2.</_></rects>
      <tilted>1</tilted></_>
    <_>
      <rects>
        <_>
          11 7 12 2 -1.</_>
        <_>
          11 7 6 1 2.</_>
        <_>
          17 8 6 1 2.</_></rects>
      <tilted>0</tilted></_>
    <_>
      <rects>
        <_>
          12 0 11 2 -1.</_>
        <_>
          12 1 11 1 2.</_></rects>
      <tilted>0</tilted></_>
    <_>
      <rects>
        <_>
          13 4 9 9 -1.</_>
        <_>
          13 7 9 3 3.</_></rects>
      <tilted>0</tilted></_>
    <_>
      <rects>
        <_>
          13 14 3 3 -1.</_>
        <_>
          14 15 1 1 9.</_></rects>
      <tilted>0</tilted></_>
    <_>
      <rects>
        <_>
          13 14 3 3 -1.</_>
        <_>
          14 14 1 3 3.</_></rects>
      <tilted>0</tilted></_>
    <_>
      <rects>
        <_>
          13 15 3 3 -1.</_>
        <_>
          14 16 1 1 9.</_></rects>
      <tilted>0</tilted></_>
    <_>
      <rects>
        <_>
          14 0 6 11 -1.</_>
        <_>
          14 0 3 11 2.</_></rects>
      <tilted>1</tilted></_>
    <_>
      <rects>
        <_>
          14 6 18 1 -1.</_>
        <_>
          20 6 6 1 3.</_></rects>
      <tilted>0</tilted></_>
    <_>
      <rects>
        <_>
          14 14 4 1 -1.</_>
        <_>
          16 14 2 1 2.</_></rects>
      <tilted>0</tilted></_>
    <_>
      <rects>
        <_>
          15 3 5 12 -1.</_>
        <_>
          15 7 5 4 3.</_></rects>
      <tilted>0</tilted></_>
    <_>
      <rects>
        <_>
          15 7 4 6 -1.</_>
        <_>
          15 10 4 3 2.</_></rects>
      <tilted>0</tilted></_>
    <_>
      <rects>
        <_>
          16 6 3 2 -1.</_>
        <_>
          16 7 3 1 2.</_></rects>
      <tilted>0</tilted></_>
    <_>
      <rects>
        <_>
          17 1 6 1 -1.</_>
        <_>
          19 1 2 1 3.</_></rects>
      <tilted>0</tilted></_>
    <_>
      <rects>
        <_>
          17 14 4 2 -1.</_>
        <_>
          17 14 2 1 2.</_>
        <_>
          19 15 2 1 2.</_></rects>
      <tilted>0</tilted></_>
    <_>
      <rects>
        <_>
          19 0 2 2 -1.</_>
        <_>
          19 1 2 1 2.</_></rects>
      <tilted>0</tilted></_>
    <_>
      <rects>
        <_>
          21 7 3 8 -1.</_>
        <_>
          19 9 3 4 2.</_></rects>
      <tilted>1</tilted></_>
    <_>
      <rects>
        <_>
          21 7 4 6 -1.</_>
        <_>
          19 9 4 2 3.</_></rects>
      <tilted>1</tilted></_>
    <_>
      <rects>
        <_>
          24 5 8 6 -1.</_>
        <_>
          28 5 4 6 2.</_></rects>
      <tilted>0</tilted></_>
    <_>
      <rects>
        <_>
          24 7 8 6 -1.</_>
        <_>
          28 7 4 6 2.</_></rects>
      <tilted>0</tilted></_>
    <_>
      <rects>
        <_>
          26 4 4 4 -1.</_>
        <_>
          28 4 2 4 2.</_></rects>
      <tilted>0</tilted></_>
    <_>
      <rects>
        <_>
          27 1 5 9 -1.</_>
        <_>
          24 4 5 3 3.</_></rects>
      <tilted>1</tilted></_>
    <_>
      <rects>
        <_>
          28 0 4 12 -1.</_>
        <_>
          25 3 4 6 2.</_></rects>
      <tilted>1</tilted></_>
    <_>
      <rects>
        <_>
          28 5 4 11 -1.</_>
        <_>
          30 5 2 11 2.</_></rects>
      <tilted>0</tilted></_>
    <_>
      <rects>
        <_>
          31 4 1 9 -1.</_>
        <_>
          28 7 1 3 3.</_></rects>
      <tilted>1</tilted></_></features></cascade>
</opencv_storage>
