<?xml version="1.0"?>
<opencv_storage>
<cascade>
  <stageType>BOOST</stageType>
  <featureType>HAAR</featureType>
  <height>18</height>
  <width>32</width>
  <stageParams>
    <boostType>GAB</boostType>
    <minHitRate>9.9989998340606689e-001</minHitRate>
    <maxFalseAlarm>5.0000000000000000e-001</maxFalseAlarm>
    <weightTrimRate>9.4999999999999996e-001</weightTrimRate>
    <maxDepth>1</maxDepth>
    <maxWeakCount>100</maxWeakCount></stageParams>
  <featureParams>
    <maxCatCount>0</maxCatCount>
    <featSize>1</featSize>
    <mode>ALL</mode></featureParams>
  <stageNum>15</stageNum>
  <stages>
    <!-- stage 0 -->
    <_>
      <maxWeakCount>3</maxWeakCount>
      <stageThreshold>-7.1370077133178711e-001</stageThreshold>
      <weakClassifiers>
        <_>
          <internalNodes>
            0 -1 14 -6.8128663115203381e-003</internalNodes>
          <leafValues>
            8.8679248094558716e-001 -8.5185188055038452e-001</leafValues></_>
        <_>
          <internalNodes>
            0 -1 27 1.8493023235350847e-003</internalNodes>
          <leafValues>
            -7.2414028644561768e-001 8.4201306104660034e-001</leafValues></_>
        <_>
          <internalNodes>
            0 -1 21 2.0611641230061650e-004</internalNodes>
          <leafValues>
            -6.6333454847335815e-001 8.6229133605957031e-001</leafValues></_></weakClassifiers></_>
    <!-- stage 1 -->
    <_>
      <maxWeakCount>3</maxWeakCount>
      <stageThreshold>-5.7737433910369873e-001</stageThreshold>
      <weakClassifiers>
        <_>
          <internalNodes>
            0 -1 25 1.4821197837591171e-002</internalNodes>
          <leafValues>
            -7.7464789152145386e-001 9.1304349899291992e-001</leafValues></_>
        <_>
          <internalNodes>
            0 -1 54 2.3573269136250019e-003</internalNodes>
          <leafValues>
            -7.8186547756195068e-001 7.6678776741027832e-001</leafValues></_>
        <_>
          <internalNodes>
            0 -1 46 -9.4452314078807831e-003</internalNodes>
          <leafValues>
            9.7913902997970581e-001 -4.0716910362243652e-001</leafValues></_></weakClassifiers></_>
    <!-- stage 2 -->
    <_>
      <maxWeakCount>4</maxWeakCount>
      <stageThreshold>-9.0266191959381104e-001</stageThreshold>
      <weakClassifiers>
        <_>
          <internalNodes>
            0 -1 1 1.9144222140312195e-002</internalNodes>
          <leafValues>
            -8.0303031206130981e-001 6.7857140302658081e-001</leafValues></_>
        <_>
          <internalNodes>
            0 -1 39 2.9079276137053967e-003</internalNodes>
          <leafValues>
            -6.0606211423873901e-001 8.0069947242736816e-001</leafValues></_>
        <_>
          <internalNodes>
            0 -1 38 2.8663747012615204e-002</internalNodes>
          <leafValues>
            -4.3838453292846680e-001 8.4927105903625488e-001</leafValues></_>
        <_>
          <internalNodes>
            0 -1 33 -8.9505121111869812e-002</internalNodes>
          <leafValues>
            9.4481509923934937e-001 -4.9859324097633362e-001</leafValues></_></weakClassifiers></_>
    <!-- stage 3 -->
    <_>
      <maxWeakCount>4</maxWeakCount>
      <stageThreshold>-7.8486621379852295e-001</stageThreshold>
      <weakClassifiers>
        <_>
          <internalNodes>
            0 -1 26 6.7068502306938171e-002</internalNodes>
          <leafValues>
            -7.2413790225982666e-001 8.6046510934829712e-001</leafValues></_>
        <_>
          <internalNodes>
            0 -1 28 -1.0748472809791565e-001</internalNodes>
          <leafValues>
            9.4156682491302490e-001 -4.3969959020614624e-001</leafValues></_>
        <_>
          <internalNodes>
            0 -1 31 2.2817390039563179e-002</internalNodes>
          <leafValues>
            -4.3581134080886841e-001 7.4660181999206543e-001</leafValues></_>
        <_>
          <internalNodes>
            0 -1 40 -1.8231499940156937e-002</internalNodes>
          <leafValues>
            9.2462939023971558e-001 -3.6763054132461548e-001</leafValues></_></weakClassifiers></_>
    <!-- stage 4 -->
    <_>
      <maxWeakCount>4</maxWeakCount>
      <stageThreshold>-4.8783329129219055e-001</stageThreshold>
      <weakClassifiers>
        <_>
          <internalNodes>
            0 -1 8 8.5554108023643494e-002</internalNodes>
          <leafValues>
            -6.0509556531906128e-001 8.7096774578094482e-001</leafValues></_>
        <_>
          <internalNodes>
            0 -1 57 -1.7974711954593658e-004</internalNodes>
          <leafValues>
            -9.7794705629348755e-001 3.1049227714538574e-001</leafValues></_>
        <_>
          <internalNodes>
            0 -1 59 -2.5073797442018986e-003</internalNodes>
          <leafValues>
            7.0259904861450195e-001 -5.7338398694992065e-001</leafValues></_>
        <_>
          <internalNodes>
            0 -1 15 2.2861058823764324e-004</internalNodes>
          <leafValues>
            3.8015395402908325e-001 -9.3401867151260376e-001</leafValues></_></weakClassifiers></_>
    <!-- stage 5 -->
    <_>
      <maxWeakCount>4</maxWeakCount>
      <stageThreshold>-8.2525402307510376e-001</stageThreshold>
      <weakClassifiers>
        <_>
          <internalNodes>
            0 -1 20 6.2938698101788759e-004</internalNodes>
          <leafValues>
            -7.6666665077209473e-001 3.5294118523597717e-001</leafValues></_>
        <_>
          <internalNodes>
            0 -1 49 -3.2098923111334443e-004</internalNodes>
          <leafValues>
            3.8708257675170898e-001 -6.8766647577285767e-001</leafValues></_>
        <_>
          <internalNodes>
            0 -1 22 -1.7472715117037296e-003</internalNodes>
          <leafValues>
            -7.6421654224395752e-001 3.6309140920639038e-001</leafValues></_>
        <_>
          <internalNodes>
            0 -1 58 -5.3450083360075951e-003</internalNodes>
          <leafValues>
            -9.4396805763244629e-001 2.7368780970573425e-001</leafValues></_></weakClassifiers></_>
    <!-- stage 6 -->
    <_>
      <maxWeakCount>4</maxWeakCount>
      <stageThreshold>-5.0571423768997192e-001</stageThreshold>
      <weakClassifiers>
        <_>
          <internalNodes>
            0 -1 13 1.5883889794349670e-001</internalNodes>
          <leafValues>
            -6.1073827743530273e-001 5.8974361419677734e-001</leafValues></_>
        <_>
          <internalNodes>
            0 -1 11 -2.2296849638223648e-003</internalNodes>
          <leafValues>
            -7.9910647869110107e-001 3.2551804184913635e-001</leafValues></_>
        <_>
          <internalNodes>
            0 -1 34 6.1550480313599110e-004</internalNodes>
          <leafValues>
            2.8286033868789673e-001 -8.1291311979293823e-001</leafValues></_>
        <_>
          <internalNodes>
            0 -1 42 -2.7518661227077246e-004</internalNodes>
          <leafValues>
            6.2127012014389038e-001 -4.9022647738456726e-001</leafValues></_></weakClassifiers></_>
    <!-- stage 7 -->
    <_>
      <maxWeakCount>5</maxWeakCount>
      <stageThreshold>-6.1014312505722046e-001</stageThreshold>
      <weakClassifiers>
        <_>
          <internalNodes>
            0 -1 45 2.7498982846736908e-002</internalNodes>
          <leafValues>
            -6.4788734912872314e-001 5.2173912525177002e-001</leafValues></_>
        <_>
          <internalNodes>
            0 -1 57 1.2843305012211204e-004</internalNodes>
          <leafValues>
            3.3311736583709717e-001 -7.9602044820785522e-001</leafValues></_>
        <_>
          <internalNodes>
            0 -1 44 -1.5030948270577937e-004</internalNodes>
          <leafValues>
            -7.1019709110260010e-001 3.9840397238731384e-001</leafValues></_>
        <_>
          <internalNodes>
            0 -1 10 4.8478241660632193e-004</internalNodes>
          <leafValues>
            3.0362948775291443e-001 -9.2549252510070801e-001</leafValues></_>
        <_>
          <internalNodes>
            0 -1 37 -5.6186802685260773e-003</internalNodes>
          <leafValues>
            -9.7985810041427612e-001 2.3171539604663849e-001</leafValues></_></weakClassifiers></_>
    <!-- stage 8 -->
    <_>
      <maxWeakCount>4</maxWeakCount>
      <stageThreshold>-2.6169633865356445e-001</stageThreshold>
      <weakClassifiers>
        <_>
          <internalNodes>
            0 -1 16 3.2943725585937500e-002</internalNodes>
          <leafValues>
            -5.7499998807907104e-001 8.5714286565780640e-001</leafValues></_>
        <_>
          <internalNodes>
            0 -1 43 -2.9477343196049333e-004</internalNodes>
          <leafValues>
            -9.5277881622314453e-001 2.7080684900283813e-001</leafValues></_>
        <_>
          <internalNodes>
            0 -1 48 -3.7091266131028533e-004</internalNodes>
          <leafValues>
            5.1317036151885986e-001 -5.9208780527114868e-001</leafValues></_>
        <_>
          <internalNodes>
            0 -1 19 9.5206797122955322e-003</internalNodes>
          <leafValues>
            -4.7067353129386902e-001 7.1565693616867065e-001</leafValues></_></weakClassifiers></_>
    <!-- stage 9 -->
    <_>
      <maxWeakCount>4</maxWeakCount>
      <stageThreshold>-4.1319006681442261e-001</stageThreshold>
      <weakClassifiers>
        <_>
          <internalNodes>
            0 -1 0 1.4344497583806515e-002</internalNodes>
          <leafValues>
            -5.9210526943206787e-001 6.1111110448837280e-001</leafValues></_>
        <_>
          <internalNodes>
            0 -1 51 2.7594652492552996e-003</internalNodes>
          <leafValues>
            -6.7001157999038696e-001 3.5402721166610718e-001</leafValues></_>
        <_>
          <internalNodes>
            0 -1 24 4.3285512365400791e-003</internalNodes>
          <leafValues>
            -3.8043808937072754e-001 6.1786937713623047e-001</leafValues></_>
        <_>
          <internalNodes>
            0 -1 23 -3.6176631692796946e-004</internalNodes>
          <leafValues>
            -7.9298138618469238e-001 2.9674559831619263e-001</leafValues></_></weakClassifiers></_>
    <!-- stage 10 -->
    <_>
      <maxWeakCount>4</maxWeakCount>
      <stageThreshold>-6.1506247520446777e-001</stageThreshold>
      <weakClassifiers>
        <_>
          <internalNodes>
            0 -1 3 1.5248220413923264e-002</internalNodes>
          <leafValues>
            -5.5696201324462891e-001 6.6666668653488159e-001</leafValues></_>
        <_>
          <internalNodes>
            0 -1 50 -1.2821446871384978e-003</internalNodes>
          <leafValues>
            -9.7328847646713257e-001 2.6904714107513428e-001</leafValues></_>
        <_>
          <internalNodes>
            0 -1 12 2.3165461607277393e-004</internalNodes>
          <leafValues>
            3.0640363693237305e-001 -7.6104259490966797e-001</leafValues></_>
        <_>
          <internalNodes>
            0 -1 7 1.8262639641761780e-003</internalNodes>
          <leafValues>
            -5.6718009710311890e-001 4.3389499187469482e-001</leafValues></_></weakClassifiers></_>
    <!-- stage 11 -->
    <_>
      <maxWeakCount>4</maxWeakCount>
      <stageThreshold>-5.3189778327941895e-001</stageThreshold>
      <weakClassifiers>
        <_>
          <internalNodes>
            0 -1 35 7.2638601064682007e-002</internalNodes>
          <leafValues>
            -5.2439022064208984e-001 7.5000000000000000e-001</leafValues></_>
        <_>
          <internalNodes>
            0 -1 36 3.1608535209670663e-004</internalNodes>
          <leafValues>
            -6.6671890020370483e-001 3.5573425889015198e-001</leafValues></_>
        <_>
          <internalNodes>
            0 -1 41 -5.5042712483555079e-004</internalNodes>
          <leafValues>
            -8.4887927770614624e-001 2.1181307733058929e-001</leafValues></_>
        <_>
          <internalNodes>
            0 -1 17 7.2920892853289843e-004</internalNodes>
          <leafValues>
            -4.8704218864440918e-001 4.8563745617866516e-001</leafValues></_></weakClassifiers></_>
    <!-- stage 12 -->
    <_>
      <maxWeakCount>4</maxWeakCount>
      <stageThreshold>-7.0628327131271362e-001</stageThreshold>
      <weakClassifiers>
        <_>
          <internalNodes>
            0 -1 55 5.5002630688250065e-003</internalNodes>
          <leafValues>
            -6.7479676008224487e-001 2.3076923191547394e-001</leafValues></_>
        <_>
          <internalNodes>
            0 -1 4 -3.5868166014552116e-004</internalNodes>
          <leafValues>
            3.9630052447319031e-001 -4.8549348115921021e-001</leafValues></_>
        <_>
          <internalNodes>
            0 -1 30 1.1705120559781790e-003</internalNodes>
          <leafValues>
            2.4013856053352356e-001 -9.2884808778762817e-001</leafValues></_>
        <_>
          <internalNodes>
            0 -1 32 -1.1303848586976528e-003</internalNodes>
          <leafValues>
            -9.0981513261795044e-001 2.1386842429637909e-001</leafValues></_></weakClassifiers></_>
    <!-- stage 13 -->
    <_>
      <maxWeakCount>6</maxWeakCount>
      <stageThreshold>-1.1792728900909424e+000</stageThreshold>
      <weakClassifiers>
        <_>
          <internalNodes>
            0 -1 18 7.1950582787394524e-003</internalNodes>
          <leafValues>
            -5.6410259008407593e-001 6.2500000000000000e-001</leafValues></_>
        <_>
          <internalNodes>
            0 -1 5 -4.3007801286876202e-003</internalNodes>
          <leafValues>
            6.6077411174774170e-001 -4.2119729518890381e-001</leafValues></_>
        <_>
          <internalNodes>
            0 -1 29 -1.1934544891119003e-003</internalNodes>
          <leafValues>
            6.4616906642913818e-001 -3.7227320671081543e-001</leafValues></_>
        <_>
          <internalNodes>
            0 -1 52 -9.3520073278341442e-005</internalNodes>
          <leafValues>
            -6.7084413766860962e-001 4.0136221051216125e-001</leafValues></_>
        <_>
          <internalNodes>
            0 -1 56 7.9263618681579828e-004</internalNodes>
          <leafValues>
            -5.5129951238632202e-001 4.5017945766448975e-001</leafValues></_>
        <_>
          <internalNodes>
            0 -1 2 -1.3486841693520546e-002</internalNodes>
          <leafValues>
            -8.3154565095901489e-001 3.8200148940086365e-001</leafValues></_></weakClassifiers></_>
    <!-- stage 14 -->
    <_>
      <maxWeakCount>4</maxWeakCount>
      <stageThreshold>-5.9329313039779663e-001</stageThreshold>
      <weakClassifiers>
        <_>
          <internalNodes>
            0 -1 6 -1.4084717258810997e-002</internalNodes>
          <leafValues>
            6.6666668653488159e-001 -5.5696201324462891e-001</leafValues></_>
        <_>
          <internalNodes>
            0 -1 53 2.1497369743883610e-004</internalNodes>
          <leafValues>
            2.6652196049690247e-001 -8.4570467472076416e-001</leafValues></_>
        <_>
          <internalNodes>
            0 -1 47 3.3353609032928944e-003</internalNodes>
          <leafValues>
            -5.1002532243728638e-001 4.7594410181045532e-001</leafValues></_>
        <_>
          <internalNodes>
            0 -1 9 1.0989148722728714e-004</internalNodes>
          <leafValues>
            3.3879750967025757e-001 -7.7879714965820313e-001</leafValues></_></weakClassifiers></_></stages>
  <features>
    <_>
      <rects>
        <_>
          0 1 8 3 -1.</_>
        <_>
          2 1 4 3 2.</_></rects>
      <tilted>0</tilted></_>
    <_>
      <rects>
        <_>
          0 1 12 4 -1.</_>
        <_>
          4 1 4 4 3.</_></rects>
      <tilted>0</tilted></_>
    <_>
      <rects>
        <_>
          0 2 2 16 -1.</_>
        <_>
          0 10 2 8 2.</_></rects>
      <tilted>0</tilted></_>
    <_>
      <rects>
        <_>
          0 2 12 1 -1.</_>
        <_>
          3 2 6 1 2.</_></rects>
      <tilted>0</tilted></_>
    <_>
      <rects>
        <_>
          0 2 6 2 -1.</_>
        <_>
          0 2 3 1 2.</_>
        <_>
          3 3 3 1 2.</_></rects>
      <tilted>0</tilted></_>
    <_>
      <rects>
        <_>
          0 4 4 4 -1.</_>
        <_>
          0 4 2 2 2.</_>
        <_>
          2 6 2 2 2.</_></rects>
      <tilted>0</tilted></_>
    <_>
      <rects>
        <_>
          1 0 26 3 -1.</_>
        <_>
          1 1 26 1 3.</_></rects>
      <tilted>0</tilted></_>
    <_>
      <rects>
        <_>
          1 1 22 3 -1.</_>
        <_>
          1 2 22 1 3.</_></rects>
      <tilted>0</tilted></_>
    <_>
      <rects>
        <_>
          1 2 20 6 -1.</_>
        <_>
          1 2 10 3 2.</_>
        <_>
          11 5 10 3 2.</_></rects>
      <tilted>0</tilted></_>
    <_>
      <rects>
        <_>
          1 9 2 4 -1.</_>
        <_>
          1 9 1 2 2.</_>
        <_>
          2 11 1 2 2.</_></rects>
      <tilted>0</tilted></_>
    <_>
      <rects>
        <_>
          1 15 3 3 -1.</_>
        <_>
          2 15 1 3 3.</_></rects>
      <tilted>0</tilted></_>
    <_>
      <rects>
        <_>
          2 0 18 1 -1.</_>
        <_>
          8 0 6 1 3.</_></rects>
      <tilted>0</tilted></_>
    <_>
      <rects>
        <_>
          3 0 6 1 -1.</_>
        <_>
          5 0 2 1 3.</_></rects>
      <tilted>0</tilted></_>
    <_>
      <rects>
        <_>
          3 2 22 10 -1.</_>
        <_>
          3 2 11 5 2.</_>
        <_>
          14 7 11 5 2.</_></rects>
      <tilted>0</tilted></_>
    <_>
      <rects>
        <_>
          3 3 7 4 -1.</_>
        <_>
          3 5 7 2 2.</_></rects>
      <tilted>0</tilted></_>
    <_>
      <rects>
        <_>
          3 15 3 1 -1.</_>
        <_>
          4 15 1 1 3.</_></rects>
      <tilted>0</tilted></_>
    <_>
      <rects>
        <_>
          4 2 3 4 -1.</_>
        <_>
          4 2 3 2 2.</_></rects>
      <tilted>1</tilted></_>
    <_>
      <rects>
        <_>
          4 5 6 2 -1.</_>
        <_>
          6 5 2 2 3.</_></rects>
      <tilted>0</tilted></_>
    <_>
      <rects>
        <_>
          4 15 20 2 -1.</_>
        <_>
          4 16 20 1 2.</_></rects>
      <tilted>0</tilted></_>
    <_>
      <rects>
        <_>
          5 0 6 3 -1.</_>
        <_>
          4 1 6 1 3.</_></rects>
      <tilted>1</tilted></_>
    <_>
      <rects>
        <_>
          5 1 1 3 -1.</_>
        <_>
          5 2 1 1 3.</_></rects>
      <tilted>0</tilted></_>
    <_>
      <rects>
        <_>
          5 2 2 1 -1.</_>
        <_>
          5 2 1 1 2.</_></rects>
      <tilted>1</tilted></_>
    <_>
      <rects>
        <_>
          5 7 4 5 -1.</_>
        <_>
          6 8 2 5 2.</_></rects>
      <tilted>1</tilted></_>
    <_>
      <rects>
        <_>
          5 11 3 6 -1.</_>
        <_>
          6 11 1 6 3.</_></rects>
      <tilted>0</tilted></_>
    <_>
      <rects>
        <_>
          6 5 6 3 -1.</_>
        <_>
          5 6 6 1 3.</_></rects>
      <tilted>1</tilted></_>
    <_>
      <rects>
        <_>
          7 0 6 4 -1.</_>
        <_>
          6 1 6 2 2.</_></rects>
      <tilted>1</tilted></_>
    <_>
      <rects>
        <_>
          7 0 8 12 -1.</_>
        <_>
          7 4 8 4 3.</_></rects>
      <tilted>0</tilted></_>
    <_>
      <rects>
        <_>
          7 4 6 4 -1.</_>
        <_>
          7 4 3 2 2.</_>
        <_>
          10 6 3 2 2.</_></rects>
      <tilted>0</tilted></_>
    <_>
      <rects>
        <_>
          7 8 24 6 -1.</_>
        <_>
          7 8 12 3 2.</_>
        <_>
          19 11 12 3 2.</_></rects>
      <tilted>0</tilted></_>
    <_>
      <rects>
        <_>
          8 0 4 5 -1.</_>
        <_>
          9 1 2 5 2.</_></rects>
      <tilted>1</tilted></_>
    <_>
      <rects>
        <_>
          8 0 2 8 -1.</_>
        <_>
          9 0 1 8 2.</_></rects>
      <tilted>0</tilted></_>
    <_>
      <rects>
        <_>
          8 4 12 8 -1.</_>
        <_>
          8 4 6 4 2.</_>
        <_>
          14 8 6 4 2.</_></rects>
      <tilted>0</tilted></_>
    <_>
      <rects>
        <_>
          8 6 8 1 -1.</_>
        <_>
          10 6 4 1 2.</_></rects>
      <tilted>0</tilted></_>
    <_>
      <rects>
        <_>
          8 6 22 8 -1.</_>
        <_>
          8 6 11 4 2.</_>
        <_>
          19 10 11 4 2.</_></rects>
      <tilted>0</tilted></_>
    <_>
      <rects>
        <_>
          10 0 2 15 -1.</_>
        <_>
          11 0 1 15 2.</_></rects>
      <tilted>0</tilted></_>
    <_>
      <rects>
        <_>
          10 6 20 12 -1.</_>
        <_>
          10 6 10 6 2.</_>
        <_>
          20 12 10 6 2.</_></rects>
      <tilted>0</tilted></_>
    <_>
      <rects>
        <_>
          11 4 2 1 -1.</_>
        <_>
          11 4 1 1 2.</_></rects>
      <tilted>1</tilted></_>
    <_>
      <rects>
        <_>
          11 4 8 1 -1.</_>
        <_>
          13 6 4 1 2.</_></rects>
      <tilted>1</tilted></_>
    <_>
      <rects>
        <_>
          13 1 6 6 -1.</_>
        <_>
          11 3 6 2 3.</_></rects>
      <tilted>1</tilted></_>
    <_>
      <rects>
        <_>
          13 3 6 4 -1.</_>
        <_>
          13 3 3 2 2.</_>
        <_>
          16 5 3 2 2.</_></rects>
      <tilted>0</tilted></_>
    <_>
      <rects>
        <_>
          13 8 3 4 -1.</_>
        <_>
          13 8 3 2 2.</_></rects>
      <tilted>1</tilted></_>
    <_>
      <rects>
        <_>
          16 4 3 7 -1.</_>
        <_>
          17 4 1 7 3.</_></rects>
      <tilted>0</tilted></_>
    <_>
      <rects>
        <_>
          16 6 1 2 -1.</_>
        <_>
          16 7 1 1 2.</_></rects>
      <tilted>0</tilted></_>
    <_>
      <rects>
        <_>
          19 0 2 3 -1.</_>
        <_>
          20 0 1 3 2.</_></rects>
      <tilted>0</tilted></_>
    <_>
      <rects>
        <_>
          19 3 3 9 -1.</_>
        <_>
          20 3 1 9 3.</_></rects>
      <tilted>0</tilted></_>
    <_>
      <rects>
        <_>
          19 6 6 4 -1.</_>
        <_>
          19 6 6 2 2.</_></rects>
      <tilted>1</tilted></_>
    <_>
      <rects>
        <_>
          19 10 8 8 -1.</_>
        <_>
          19 10 4 4 2.</_>
        <_>
          23 14 4 4 2.</_></rects>
      <tilted>0</tilted></_>
    <_>
      <rects>
        <_>
          20 5 8 1 -1.</_>
        <_>
          22 7 4 1 2.</_></rects>
      <tilted>1</tilted></_>
    <_>
      <rects>
        <_>
          20 7 2 2 -1.</_>
        <_>
          20 8 2 1 2.</_></rects>
      <tilted>0</tilted></_>
    <_>
      <rects>
        <_>
          20 10 2 2 -1.</_>
        <_>
          20 11 2 1 2.</_></rects>
      <tilted>0</tilted></_>
    <_>
      <rects>
        <_>
          21 0 3 11 -1.</_>
        <_>
          22 0 1 11 3.</_></rects>
      <tilted>0</tilted></_>
    <_>
      <rects>
        <_>
          21 9 6 1 -1.</_>
        <_>
          21 9 3 1 2.</_></rects>
      <tilted>1</tilted></_>
    <_>
      <rects>
        <_>
          22 3 3 2 -1.</_>
        <_>
          23 3 1 2 3.</_></rects>
      <tilted>0</tilted></_>
    <_>
      <rects>
        <_>
          23 6 3 2 -1.</_>
        <_>
          24 6 1 2 3.</_></rects>
      <tilted>0</tilted></_>
    <_>
      <rects>
        <_>
          23 8 4 2 -1.</_>
        <_>
          23 8 4 1 2.</_></rects>
      <tilted>1</tilted></_>
    <_>
      <rects>
        <_>
          24 8 8 6 -1.</_>
        <_>
          24 8 4 3 2.</_>
        <_>
          28 11 4 3 2.</_></rects>
      <tilted>0</tilted></_>
    <_>
      <rects>
        <_>
          25 7 1 4 -1.</_>
        <_>
          24 8 1 2 2.</_></rects>
      <tilted>1</tilted></_>
    <_>
      <rects>
        <_>
          26 0 3 1 -1.</_>
        <_>
          27 0 1 1 3.</_></rects>
      <tilted>0</tilted></_>
    <_>
      <rects>
        <_>
          26 8 4 6 -1.</_>
        <_>
          27 9 2 6 2.</_></rects>
      <tilted>1</tilted></_>
    <_>
      <rects>
        <_>
          31 10 1 6 -1.</_>
        <_>
          31 13 1 3 2.</_></rects>
      <tilted>0</tilted></_></features></cascade>
</opencv_storage>
