<?xml version="1.0"?>
<opencv_storage>
<cascade>
  <stageType>BOOST</stageType>
  <featureType>HAAR</featureType>
  <height>18</height>
  <width>32</width>
  <stageParams>
    <boostType>GAB</boostType>
    <minHitRate>9.9989998340606689e-001</minHitRate>
    <maxFalseAlarm>5.0000000000000000e-001</maxFalseAlarm>
    <weightTrimRate>9.4999999999999996e-001</weightTrimRate>
    <maxDepth>1</maxDepth>
    <maxWeakCount>100</maxWeakCount></stageParams>
  <featureParams>
    <maxCatCount>0</maxCatCount>
    <featSize>1</featSize>
    <mode>ALL</mode></featureParams>
  <stageNum>15</stageNum>
  <stages>
    <!-- stage 0 -->
    <_>
      <maxWeakCount>4</maxWeakCount>
      <stageThreshold>-1.1831938028335571e+000</stageThreshold>
      <weakClassifiers>
        <_>
          <internalNodes>
            0 -1 22 2.6979618705809116e-003</internalNodes>
          <leafValues>
            -7.2857141494750977e-001 7.0833331346511841e-001</leafValues></_>
        <_>
          <internalNodes>
            0 -1 35 -7.6285074464976788e-003</internalNodes>
          <leafValues>
            8.2722568511962891e-001 -5.0438934564590454e-001</leafValues></_>
        <_>
          <internalNodes>
            0 -1 8 2.2213617921806872e-004</internalNodes>
          <leafValues>
            -6.2093865871429443e-001 6.4262318611145020e-001</leafValues></_>
        <_>
          <internalNodes>
            0 -1 18 -3.2373485155403614e-003</internalNodes>
          <leafValues>
            7.4912106990814209e-001 -5.9285628795623779e-001</leafValues></_></weakClassifiers></_>
    <!-- stage 1 -->
    <_>
      <maxWeakCount>3</maxWeakCount>
      <stageThreshold>-5.5051869153976440e-001</stageThreshold>
      <weakClassifiers>
        <_>
          <internalNodes>
            0 -1 23 -2.6748349890112877e-002</internalNodes>
          <leafValues>
            5.4716980457305908e-001 -7.1851849555969238e-001</leafValues></_>
        <_>
          <internalNodes>
            0 -1 40 1.0347713716328144e-002</internalNodes>
          <leafValues>
            -5.3554290533065796e-001 7.3359423875808716e-001</leafValues></_>
        <_>
          <internalNodes>
            0 -1 24 1.6338719287887216e-003</internalNodes>
          <leafValues>
            -5.6214559078216553e-001 7.5785481929779053e-001</leafValues></_></weakClassifiers></_>
    <!-- stage 2 -->
    <_>
      <maxWeakCount>3</maxWeakCount>
      <stageThreshold>-4.1015949845314026e-001</stageThreshold>
      <weakClassifiers>
        <_>
          <internalNodes>
            0 -1 15 2.4281259626150131e-002</internalNodes>
          <leafValues>
            -6.6433566808700562e-001 6.0000002384185791e-001</leafValues></_>
        <_>
          <internalNodes>
            0 -1 19 -9.8221659660339355e-002</internalNodes>
          <leafValues>
            7.0963394641876221e-001 -5.3899389505386353e-001</leafValues></_>
        <_>
          <internalNodes>
            0 -1 33 -9.6082780510187149e-003</internalNodes>
          <leafValues>
            7.9317009449005127e-001 -4.4934645295143127e-001</leafValues></_></weakClassifiers></_>
    <!-- stage 3 -->
    <_>
      <maxWeakCount>3</maxWeakCount>
      <stageThreshold>-5.4497915506362915e-001</stageThreshold>
      <weakClassifiers>
        <_>
          <internalNodes>
            0 -1 41 2.3177435994148254e-001</internalNodes>
          <leafValues>
            -5.8709675073623657e-001 6.9696968793869019e-001</leafValues></_>
        <_>
          <internalNodes>
            0 -1 38 -3.4314334392547607e-002</internalNodes>
          <leafValues>
            6.8062096834182739e-001 -3.9614883065223694e-001</leafValues></_>
        <_>
          <internalNodes>
            0 -1 20 -2.4712728918530047e-004</internalNodes>
          <leafValues>
            5.4453158378601074e-001 -6.3850337266921997e-001</leafValues></_></weakClassifiers></_>
    <!-- stage 4 -->
    <_>
      <maxWeakCount>3</maxWeakCount>
      <stageThreshold>-4.8380172252655029e-001</stageThreshold>
      <weakClassifiers>
        <_>
          <internalNodes>
            0 -1 3 1.5053680166602135e-002</internalNodes>
          <leafValues>
            -6.6666668653488159e-001 4.7999998927116394e-001</leafValues></_>
        <_>
          <internalNodes>
            0 -1 25 -1.7230648547410965e-002</internalNodes>
          <leafValues>
            7.6612937450408936e-001 -4.4296395778656006e-001</leafValues></_>
        <_>
          <internalNodes>
            0 -1 43 8.1040211021900177e-002</internalNodes>
          <leafValues>
            -4.7552898526191711e-001 6.2582886219024658e-001</leafValues></_></weakClassifiers></_>
    <!-- stage 5 -->
    <_>
      <maxWeakCount>4</maxWeakCount>
      <stageThreshold>-3.6457762122154236e-001</stageThreshold>
      <weakClassifiers>
        <_>
          <internalNodes>
            0 -1 10 1.9606468267738819e-003</internalNodes>
          <leafValues>
            -5.9731543064117432e-001 5.3846156597137451e-001</leafValues></_>
        <_>
          <internalNodes>
            0 -1 36 3.5396177554503083e-004</internalNodes>
          <leafValues>
            3.4696319699287415e-001 -8.1919139623641968e-001</leafValues></_>
        <_>
          <internalNodes>
            0 -1 46 2.4781407788395882e-002</internalNodes>
          <leafValues>
            -3.8486221432685852e-001 9.0478891134262085e-001</leafValues></_>
        <_>
          <internalNodes>
            0 -1 31 6.6794030135497451e-004</internalNodes>
          <leafValues>
            4.0397801995277405e-001 -8.6514014005661011e-001</leafValues></_></weakClassifiers></_>
    <!-- stage 6 -->
    <_>
      <maxWeakCount>3</maxWeakCount>
      <stageThreshold>-9.2593319714069366e-002</stageThreshold>
      <weakClassifiers>
        <_>
          <internalNodes>
            0 -1 1 4.4668121263384819e-003</internalNodes>
          <leafValues>
            -5.5555558204650879e-001 8.4615385532379150e-001</leafValues></_>
        <_>
          <internalNodes>
            0 -1 44 2.0620929717551917e-004</internalNodes>
          <leafValues>
            2.6563158631324768e-001 -9.5223140716552734e-001</leafValues></_>
        <_>
          <internalNodes>
            0 -1 12 6.1285775154829025e-004</internalNodes>
          <leafValues>
            1.9733063876628876e-001 -9.5708996057510376e-001</leafValues></_></weakClassifiers></_>
    <!-- stage 7 -->
    <_>
      <maxWeakCount>4</maxWeakCount>
      <stageThreshold>-9.4972461462020874e-001</stageThreshold>
      <weakClassifiers>
        <_>
          <internalNodes>
            0 -1 16 4.9436287954449654e-003</internalNodes>
          <leafValues>
            -5.6410259008407593e-001 6.2500000000000000e-001</leafValues></_>
        <_>
          <internalNodes>
            0 -1 27 -2.6082141324877739e-002</internalNodes>
          <leafValues>
            -9.3481028079986572e-001 1.9575472176074982e-001</leafValues></_>
        <_>
          <internalNodes>
            0 -1 45 -2.2943710791878402e-004</internalNodes>
          <leafValues>
            -7.8152012825012207e-001 2.5978645682334900e-001</leafValues></_>
        <_>
          <internalNodes>
            0 -1 48 -6.2300497666001320e-004</internalNodes>
          <leafValues>
            -9.4460123777389526e-001 2.0014338195323944e-001</leafValues></_></weakClassifiers></_>
    <!-- stage 8 -->
    <_>
      <maxWeakCount>3</maxWeakCount>
      <stageThreshold>-6.0137349367141724e-001</stageThreshold>
      <weakClassifiers>
        <_>
          <internalNodes>
            0 -1 14 -1.3796646147966385e-002</internalNodes>
          <leafValues>
            6.7567569017410278e-001 -6.1589401960372925e-001</leafValues></_>
        <_>
          <internalNodes>
            0 -1 28 -5.7730292610358447e-005</internalNodes>
          <leafValues>
            -6.7765516042709351e-001 3.3221417665481567e-001</leafValues></_>
        <_>
          <internalNodes>
            0 -1 21 -2.5215767323970795e-002</internalNodes>
          <leafValues>
            9.0993887186050415e-001 -3.1769365072250366e-001</leafValues></_></weakClassifiers></_>
    <!-- stage 9 -->
    <_>
      <maxWeakCount>5</maxWeakCount>
      <stageThreshold>-5.8947312831878662e-001</stageThreshold>
      <weakClassifiers>
        <_>
          <internalNodes>
            0 -1 0 1.2954717967659235e-003</internalNodes>
          <leafValues>
            -6.1643832921981812e-001 5.2380955219268799e-001</leafValues></_>
        <_>
          <internalNodes>
            0 -1 39 2.7291625738143921e-003</internalNodes>
          <leafValues>
            -4.0496000647544861e-001 6.4520466327667236e-001</leafValues></_>
        <_>
          <internalNodes>
            0 -1 30 7.6581095345318317e-004</internalNodes>
          <leafValues>
            -5.7184618711471558e-001 5.1968401670455933e-001</leafValues></_>
        <_>
          <internalNodes>
            0 -1 13 -9.6928223967552185e-002</internalNodes>
          <leafValues>
            7.0809698104858398e-001 -3.7762600183486938e-001</leafValues></_>
        <_>
          <internalNodes>
            0 -1 29 -3.5167902708053589e-001</internalNodes>
          <leafValues>
            -1. 3.3123272657394409e-001</leafValues></_></weakClassifiers></_>
    <!-- stage 10 -->
    <_>
      <maxWeakCount>5</maxWeakCount>
      <stageThreshold>-8.9886832237243652e-001</stageThreshold>
      <weakClassifiers>
        <_>
          <internalNodes>
            0 -1 36 -1.4917027147021145e-004</internalNodes>
          <leafValues>
            -7.4509805440902710e-001 9.3023255467414856e-002</leafValues></_>
        <_>
          <internalNodes>
            0 -1 6 -6.1788142193108797e-004</internalNodes>
          <leafValues>
            3.4879428148269653e-001 -5.7676249742507935e-001</leafValues></_>
        <_>
          <internalNodes>
            0 -1 11 1.6633750055916607e-004</internalNodes>
          <leafValues>
            3.2212013006210327e-001 -7.0173734426498413e-001</leafValues></_>
        <_>
          <internalNodes>
            0 -1 49 1.9439775496721268e-002</internalNodes>
          <leafValues>
            -3.4554928541183472e-001 6.5584921836853027e-001</leafValues></_>
        <_>
          <internalNodes>
            0 -1 47 2.6557248085737228e-002</internalNodes>
          <leafValues>
            -2.9339921474456787e-001 8.6351990699768066e-001</leafValues></_></weakClassifiers></_>
    <!-- stage 11 -->
    <_>
      <maxWeakCount>3</maxWeakCount>
      <stageThreshold>-4.2743739485740662e-001</stageThreshold>
      <weakClassifiers>
        <_>
          <internalNodes>
            0 -1 2 7.4814632534980774e-003</internalNodes>
          <leafValues>
            -5.9477126598358154e-001 6.5714287757873535e-001</leafValues></_>
        <_>
          <internalNodes>
            0 -1 5 -1.5787621960043907e-002</internalNodes>
          <leafValues>
            5.3698676824569702e-001 -5.2158552408218384e-001</leafValues></_>
        <_>
          <internalNodes>
            0 -1 9 4.8196848481893539e-002</internalNodes>
          <leafValues>
            -3.6965292692184448e-001 8.4500181674957275e-001</leafValues></_></weakClassifiers></_>
    <!-- stage 12 -->
    <_>
      <maxWeakCount>3</maxWeakCount>
      <stageThreshold>-3.1726047396659851e-001</stageThreshold>
      <weakClassifiers>
        <_>
          <internalNodes>
            0 -1 7 1.8229853361845016e-002</internalNodes>
          <leafValues>
            -5.2439022064208984e-001 7.5000000000000000e-001</leafValues></_>
        <_>
          <internalNodes>
            0 -1 17 1.9720431417226791e-002</internalNodes>
          <leafValues>
            -2.8104737401008606e-001 7.7715969085693359e-001</leafValues></_>
        <_>
          <internalNodes>
            0 -1 26 -7.3360424721613526e-004</internalNodes>
          <leafValues>
            4.8817715048789978e-001 -5.1880353689193726e-001</leafValues></_></weakClassifiers></_>
    <!-- stage 13 -->
    <_>
      <maxWeakCount>2</maxWeakCount>
      <stageThreshold>-2.8110343217849731e-001</stageThreshold>
      <weakClassifiers>
        <_>
          <internalNodes>
            0 -1 32 3.9650037884712219e-002</internalNodes>
          <leafValues>
            -5.9477126598358154e-001 6.5714287757873535e-001</leafValues></_>
        <_>
          <internalNodes>
            0 -1 48 7.5198622653260827e-004</internalNodes>
          <leafValues>
            3.1366780400276184e-001 -9.0749794244766235e-001</leafValues></_></weakClassifiers></_>
    <!-- stage 14 -->
    <_>
      <maxWeakCount>4</maxWeakCount>
      <stageThreshold>-7.4272984266281128e-001</stageThreshold>
      <weakClassifiers>
        <_>
          <internalNodes>
            0 -1 42 5.1250256597995758e-002</internalNodes>
          <leafValues>
            -5.6000000238418579e-001 4.2105263471603394e-001</leafValues></_>
        <_>
          <internalNodes>
            0 -1 34 -1.7030385788530111e-003</internalNodes>
          <leafValues>
            -6.9214552640914917e-001 2.7875280380249023e-001</leafValues></_>
        <_>
          <internalNodes>
            0 -1 37 7.3232711292803288e-004</internalNodes>
          <leafValues>
            1.5842241048812866e-001 -1.</leafValues></_>
        <_>
          <internalNodes>
            0 -1 4 2.7256418252363801e-004</internalNodes>
          <leafValues>
            3.5099324584007263e-001 -5.7301330566406250e-001</leafValues></_></weakClassifiers></_></stages>
  <features>
    <_>
      <rects>
        <_>
          0 0 3 3 -1.</_>
        <_>
          1 0 1 3 3.</_></rects>
      <tilted>0</tilted></_>
    <_>
      <rects>
        <_>
          0 1 4 2 -1.</_>
        <_>
          1 1 2 2 2.</_></rects>
      <tilted>0</tilted></_>
    <_>
      <rects>
        <_>
          0 1 6 4 -1.</_>
        <_>
          2 1 2 4 3.</_></rects>
      <tilted>0</tilted></_>
    <_>
      <rects>
        <_>
          0 2 18 4 -1.</_>
        <_>
          0 2 9 2 2.</_>
        <_>
          9 4 9 2 2.</_></rects>
      <tilted>0</tilted></_>
    <_>
      <rects>
        <_>
          0 14 13 2 -1.</_>
        <_>
          0 15 13 1 2.</_></rects>
      <tilted>0</tilted></_>
    <_>
      <rects>
        <_>
          0 15 24 1 -1.</_>
        <_>
          12 15 12 1 2.</_></rects>
      <tilted>0</tilted></_>
    <_>
      <rects>
        <_>
          1 0 6 2 -1.</_>
        <_>
          1 0 3 1 2.</_>
        <_>
          4 1 3 1 2.</_></rects>
      <tilted>0</tilted></_>
    <_>
      <rects>
        <_>
          1 1 6 4 -1.</_>
        <_>
          1 1 3 2 2.</_>
        <_>
          4 3 3 2 2.</_></rects>
      <tilted>0</tilted></_>
    <_>
      <rects>
        <_>
          1 2 6 1 -1.</_>
        <_>
          3 2 2 1 3.</_></rects>
      <tilted>0</tilted></_>
    <_>
      <rects>
        <_>
          1 6 18 9 -1.</_>
        <_>
          1 9 18 3 3.</_></rects>
      <tilted>0</tilted></_>
    <_>
      <rects>
        <_>
          2 0 1 3 -1.</_>
        <_>
          2 1 1 1 3.</_></rects>
      <tilted>0</tilted></_>
    <_>
      <rects>
        <_>
          2 9 2 4 -1.</_>
        <_>
          2 9 1 2 2.</_>
        <_>
          3 11 1 2 2.</_></rects>
      <tilted>0</tilted></_>
    <_>
      <rects>
        <_>
          2 12 2 4 -1.</_>
        <_>
          2 12 1 2 2.</_>
        <_>
          3 14 1 2 2.</_></rects>
      <tilted>0</tilted></_>
    <_>
      <rects>
        <_>
          2 14 24 4 -1.</_>
        <_>
          14 14 12 4 2.</_></rects>
      <tilted>0</tilted></_>
    <_>
      <rects>
        <_>
          3 0 10 4 -1.</_>
        <_>
          3 0 5 2 2.</_>
        <_>
          8 2 5 2 2.</_></rects>
      <tilted>0</tilted></_>
    <_>
      <rects>
        <_>
          3 0 7 8 -1.</_>
        <_>
          3 2 7 4 2.</_></rects>
      <tilted>0</tilted></_>
    <_>
      <rects>
        <_>
          3 2 6 2 -1.</_>
        <_>
          3 2 3 1 2.</_>
        <_>
          6 3 3 1 2.</_></rects>
      <tilted>0</tilted></_>
    <_>
      <rects>
        <_>
          3 4 7 6 -1.</_>
        <_>
          3 7 7 3 2.</_></rects>
      <tilted>0</tilted></_>
    <_>
      <rects>
        <_>
          3 5 14 3 -1.</_>
        <_>
          3 6 14 1 3.</_></rects>
      <tilted>0</tilted></_>
    <_>
      <rects>
        <_>
          4 2 20 16 -1.</_>
        <_>
          4 2 10 8 2.</_>
        <_>
          14 10 10 8 2.</_></rects>
      <tilted>0</tilted></_>
    <_>
      <rects>
        <_>
          4 3 1 2 -1.</_>
        <_>
          4 4 1 1 2.</_></rects>
      <tilted>0</tilted></_>
    <_>
      <rects>
        <_>
          4 4 18 4 -1.</_>
        <_>
          4 4 9 2 2.</_>
        <_>
          13 6 9 2 2.</_></rects>
      <tilted>0</tilted></_>
    <_>
      <rects>
        <_>
          5 2 4 4 -1.</_>
        <_>
          5 3 4 2 2.</_></rects>
      <tilted>0</tilted></_>
    <_>
      <rects>
        <_>
          6 8 18 8 -1.</_>
        <_>
          6 8 9 4 2.</_>
        <_>
          15 12 9 4 2.</_></rects>
      <tilted>0</tilted></_>
    <_>
      <rects>
        <_>
          7 4 1 2 -1.</_>
        <_>
          7 4 1 1 2.</_></rects>
      <tilted>1</tilted></_>
    <_>
      <rects>
        <_>
          8 4 18 4 -1.</_>
        <_>
          8 4 9 2 2.</_>
        <_>
          17 6 9 2 2.</_></rects>
      <tilted>0</tilted></_>
    <_>
      <rects>
        <_>
          8 6 2 2 -1.</_>
        <_>
          8 7 2 1 2.</_></rects>
      <tilted>0</tilted></_>
    <_>
      <rects>
        <_>
          9 1 6 5 -1.</_>
        <_>
          9 1 3 5 2.</_></rects>
      <tilted>1</tilted></_>
    <_>
      <rects>
        <_>
          9 16 2 2 -1.</_>
        <_>
          9 16 1 1 2.</_>
        <_>
          10 17 1 1 2.</_></rects>
      <tilted>0</tilted></_>
    <_>
      <rects>
        <_>
          10 6 21 12 -1.</_>
        <_>
          10 12 21 6 2.</_></rects>
      <tilted>0</tilted></_>
    <_>
      <rects>
        <_>
          10 7 8 2 -1.</_>
        <_>
          10 7 4 1 2.</_>
        <_>
          14 8 4 1 2.</_></rects>
      <tilted>0</tilted></_>
    <_>
      <rects>
        <_>
          10 8 3 1 -1.</_>
        <_>
          11 9 1 1 3.</_></rects>
      <tilted>1</tilted></_>
    <_>
      <rects>
        <_>
          12 3 10 6 -1.</_>
        <_>
          12 6 10 3 2.</_></rects>
      <tilted>0</tilted></_>
    <_>
      <rects>
        <_>
          12 8 4 6 -1.</_>
        <_>
          12 11 4 3 2.</_></rects>
      <tilted>0</tilted></_>
    <_>
      <rects>
        <_>
          12 9 2 6 -1.</_>
        <_>
          12 11 2 2 3.</_></rects>
      <tilted>0</tilted></_>
    <_>
      <rects>
        <_>
          13 14 8 2 -1.</_>
        <_>
          17 14 4 2 2.</_></rects>
      <tilted>0</tilted></_>
    <_>
      <rects>
        <_>
          14 0 3 4 -1.</_>
        <_>
          15 0 1 4 3.</_></rects>
      <tilted>0</tilted></_>
    <_>
      <rects>
        <_>
          14 0 4 2 -1.</_>
        <_>
          14 0 2 1 2.</_>
        <_>
          16 1 2 1 2.</_></rects>
      <tilted>0</tilted></_>
    <_>
      <rects>
        <_>
          14 1 6 8 -1.</_>
        <_>
          14 1 6 4 2.</_></rects>
      <tilted>1</tilted></_>
    <_>
      <rects>
        <_>
          14 4 8 4 -1.</_>
        <_>
          14 4 4 2 2.</_>
        <_>
          18 6 4 2 2.</_></rects>
      <tilted>0</tilted></_>
    <_>
      <rects>
        <_>
          14 5 3 6 -1.</_>
        <_>
          12 7 3 2 3.</_></rects>
      <tilted>1</tilted></_>
    <_>
      <rects>
        <_>
          16 0 15 18 -1.</_>
        <_>
          16 6 15 6 3.</_></rects>
      <tilted>0</tilted></_>
    <_>
      <rects>
        <_>
          17 6 14 10 -1.</_>
        <_>
          17 6 7 5 2.</_>
        <_>
          24 11 7 5 2.</_></rects>
      <tilted>0</tilted></_>
    <_>
      <rects>
        <_>
          18 1 14 16 -1.</_>
        <_>
          18 5 14 8 2.</_></rects>
      <tilted>0</tilted></_>
    <_>
      <rects>
        <_>
          22 4 2 1 -1.</_>
        <_>
          23 4 1 1 2.</_></rects>
      <tilted>0</tilted></_>
    <_>
      <rects>
        <_>
          24 0 4 2 -1.</_>
        <_>
          24 0 2 1 2.</_>
        <_>
          26 1 2 1 2.</_></rects>
      <tilted>0</tilted></_>
    <_>
      <rects>
        <_>
          24 6 4 4 -1.</_>
        <_>
          24 6 4 2 2.</_></rects>
      <tilted>1</tilted></_>
    <_>
      <rects>
        <_>
          25 3 3 14 -1.</_>
        <_>
          25 10 3 7 2.</_></rects>
      <tilted>0</tilted></_>
    <_>
      <rects>
        <_>
          28 9 3 4 -1.</_>
        <_>
          29 9 1 4 3.</_></rects>
      <tilted>0</tilted></_>
    <_>
      <rects>
        <_>
          29 5 3 6 -1.</_>
        <_>
          29 5 3 3 2.</_></rects>
      <tilted>1</tilted></_></features></cascade>
</opencv_storage>
