<?xml version="1.0"?>
<opencv_storage>
<cascade>
  <stageType>BOOST</stageType>
  <featureType>HAAR</featureType>
  <height>18</height>
  <width>32</width>
  <stageParams>
    <boostType>GAB</boostType>
    <minHitRate>9.9989998340606689e-001</minHitRate>
    <maxFalseAlarm>5.0000000000000000e-001</maxFalseAlarm>
    <weightTrimRate>9.4999999999999996e-001</weightTrimRate>
    <maxDepth>1</maxDepth>
    <maxWeakCount>100</maxWeakCount></stageParams>
  <featureParams>
    <maxCatCount>0</maxCatCount>
    <featSize>1</featSize>
    <mode>ALL</mode></featureParams>
  <stageNum>15</stageNum>
  <stages>
    <!-- stage 0 -->
    <_>
      <maxWeakCount>4</maxWeakCount>
      <stageThreshold>-2.0122435092926025e+000</stageThreshold>
      <weakClassifiers>
        <_>
          <internalNodes>
            0 -1 29 1.3546882569789886e-001</internalNodes>
          <leafValues>
            -9.4912987947463989e-001 7.0312500000000000e-001</leafValues></_>
        <_>
          <internalNodes>
            0 -1 32 -2.4644638597965240e-001</internalNodes>
          <leafValues>
            7.6440811157226563e-001 -7.9398608207702637e-001</leafValues></_>
        <_>
          <internalNodes>
            0 -1 13 -5.4579589515924454e-002</internalNodes>
          <leafValues>
            5.2063250541687012e-001 -8.0221062898635864e-001</leafValues></_>
        <_>
          <internalNodes>
            0 -1 15 3.0180834233760834e-002</internalNodes>
          <leafValues>
            -7.3444366455078125e-001 5.3308314085006714e-001</leafValues></_></weakClassifiers></_>
    <!-- stage 1 -->
    <_>
      <maxWeakCount>6</maxWeakCount>
      <stageThreshold>-2.3150885105133057e+000</stageThreshold>
      <weakClassifiers>
        <_>
          <internalNodes>
            0 -1 22 1.7840191721916199e-001</internalNodes>
          <leafValues>
            -9.0368270874023438e-001 1.1242603510618210e-001</leafValues></_>
        <_>
          <internalNodes>
            0 -1 84 8.7796129286289215e-002</internalNodes>
          <leafValues>
            -7.3009502887725830e-001 4.9370020627975464e-001</leafValues></_>
        <_>
          <internalNodes>
            0 -1 83 -5.0545902922749519e-004</internalNodes>
          <leafValues>
            2.9877117276191711e-001 -7.6175260543823242e-001</leafValues></_>
        <_>
          <internalNodes>
            0 -1 41 1.2818214017897844e-003</internalNodes>
          <leafValues>
            -6.7126452922821045e-001 4.0509086847305298e-001</leafValues></_>
        <_>
          <internalNodes>
            0 -1 59 8.4623799193650484e-004</internalNodes>
          <leafValues>
            3.4288489818572998e-001 -8.7563550472259521e-001</leafValues></_>
        <_>
          <internalNodes>
            0 -1 3 3.9200671017169952e-003</internalNodes>
          <leafValues>
            -6.5170246362686157e-001 3.6097460985183716e-001</leafValues></_></weakClassifiers></_>
    <!-- stage 2 -->
    <_>
      <maxWeakCount>5</maxWeakCount>
      <stageThreshold>-1.8429547548294067e+000</stageThreshold>
      <weakClassifiers>
        <_>
          <internalNodes>
            0 -1 17 1.8101538717746735e-001</internalNodes>
          <leafValues>
            -9.1432791948318481e-001 7.6660758250281080e-018</leafValues></_>
        <_>
          <internalNodes>
            0 -1 1 -8.8635236024856567e-002</internalNodes>
          <leafValues>
            4.2199185490608215e-001 -6.7067891359329224e-001</leafValues></_>
        <_>
          <internalNodes>
            0 -1 46 -2.2678385721519589e-004</internalNodes>
          <leafValues>
            3.2928720116615295e-001 -7.3375934362411499e-001</leafValues></_>
        <_>
          <internalNodes>
            0 -1 60 -6.1054248362779617e-004</internalNodes>
          <leafValues>
            -9.8901426792144775e-001 2.4087856709957123e-001</leafValues></_>
        <_>
          <internalNodes>
            0 -1 44 1.0642665438354015e-003</internalNodes>
          <leafValues>
            2.3493288457393646e-001 -9.5171648263931274e-001</leafValues></_></weakClassifiers></_>
    <!-- stage 3 -->
    <_>
      <maxWeakCount>6</maxWeakCount>
      <stageThreshold>-1.5760171413421631e+000</stageThreshold>
      <weakClassifiers>
        <_>
          <internalNodes>
            0 -1 47 -1.4892223989591002e-003</internalNodes>
          <leafValues>
            -3.0000001192092896e-001 -9.6635514497756958e-001</leafValues></_>
        <_>
          <internalNodes>
            0 -1 11 3.0419286340475082e-002</internalNodes>
          <leafValues>
            -8.3795797824859619e-001 2.1112671494483948e-001</leafValues></_>
        <_>
          <internalNodes>
            0 -1 67 1.0695880046114326e-003</internalNodes>
          <leafValues>
            -7.5204658508300781e-001 2.6895460486412048e-001</leafValues></_>
        <_>
          <internalNodes>
            0 -1 56 -3.8033528835512698e-004</internalNodes>
          <leafValues>
            -1. 2.2261871397495270e-001</leafValues></_>
        <_>
          <internalNodes>
            0 -1 58 4.5406311983242631e-004</internalNodes>
          <leafValues>
            2.4839359521865845e-001 -9.6528899669647217e-001</leafValues></_>
        <_>
          <internalNodes>
            0 -1 64 -4.5988624915480614e-003</internalNodes>
          <leafValues>
            5.0933021306991577e-001 -5.1828902959823608e-001</leafValues></_></weakClassifiers></_>
    <!-- stage 4 -->
    <_>
      <maxWeakCount>5</maxWeakCount>
      <stageThreshold>-1.8822939395904541e+000</stageThreshold>
      <weakClassifiers>
        <_>
          <internalNodes>
            0 -1 69 -6.8717770045623183e-004</internalNodes>
          <leafValues>
            -3.7534245848655701e-001 -9.4509804248809814e-001</leafValues></_>
        <_>
          <internalNodes>
            0 -1 55 -5.6283129379153252e-004</internalNodes>
          <leafValues>
            1.5292929112911224e-001 -7.7023923397064209e-001</leafValues></_>
        <_>
          <internalNodes>
            0 -1 25 4.6804704470559955e-004</internalNodes>
          <leafValues>
            2.0421767234802246e-001 -9.2392730712890625e-001</leafValues></_>
        <_>
          <internalNodes>
            0 -1 74 1.3504879549145699e-002</internalNodes>
          <leafValues>
            -5.4101544618606567e-001 4.3808284401893616e-001</leafValues></_>
        <_>
          <internalNodes>
            0 -1 63 -7.6614691352006048e-005</internalNodes>
          <leafValues>
            2.8751227259635925e-001 -8.0925720930099487e-001</leafValues></_></weakClassifiers></_>
    <!-- stage 5 -->
    <_>
      <maxWeakCount>6</maxWeakCount>
      <stageThreshold>-1.7686434984207153e+000</stageThreshold>
      <weakClassifiers>
        <_>
          <internalNodes>
            0 -1 19 -1.8282048404216766e-004</internalNodes>
          <leafValues>
            -3.9361703395843506e-001 -9.4388777017593384e-001</leafValues></_>
        <_>
          <internalNodes>
            0 -1 68 -3.9304184610955417e-004</internalNodes>
          <leafValues>
            5.8305870741605759e-002 -8.1180441379547119e-001</leafValues></_>
        <_>
          <internalNodes>
            0 -1 18 6.0335628688335419e-002</internalNodes>
          <leafValues>
            -7.8811973333358765e-001 2.7345162630081177e-001</leafValues></_>
        <_>
          <internalNodes>
            0 -1 51 -2.4810998002067208e-004</internalNodes>
          <leafValues>
            3.3828017115592957e-001 -6.9766557216644287e-001</leafValues></_>
        <_>
          <internalNodes>
            0 -1 9 1.7529862816445529e-004</internalNodes>
          <leafValues>
            2.2058084607124329e-001 -8.3700186014175415e-001</leafValues></_>
        <_>
          <internalNodes>
            0 -1 54 1.5569711104035378e-003</internalNodes>
          <leafValues>
            2.1231880784034729e-001 -8.1757706403732300e-001</leafValues></_></weakClassifiers></_>
    <!-- stage 6 -->
    <_>
      <maxWeakCount>5</maxWeakCount>
      <stageThreshold>-1.6379148960113525e+000</stageThreshold>
      <weakClassifiers>
        <_>
          <internalNodes>
            0 -1 76 5.1252625416964293e-004</internalNodes>
          <leafValues>
            -9.5407098531723022e-001 -4.0909090638160706e-001</leafValues></_>
        <_>
          <internalNodes>
            0 -1 20 -9.7497063688933849e-004</internalNodes>
          <leafValues>
            1.4390522241592407e-001 -7.4095535278320313e-001</leafValues></_>
        <_>
          <internalNodes>
            0 -1 77 3.1092143035493791e-004</internalNodes>
          <leafValues>
            1.7005531489849091e-001 -9.0704357624053955e-001</leafValues></_>
        <_>
          <internalNodes>
            0 -1 31 -2.4253444280475378e-004</internalNodes>
          <leafValues>
            -8.3976143598556519e-001 2.3256677389144897e-001</leafValues></_>
        <_>
          <internalNodes>
            0 -1 75 -3.2798553002066910e-004</internalNodes>
          <leafValues>
            -9.3170237541198730e-001 1.8183749914169312e-001</leafValues></_></weakClassifiers></_>
    <!-- stage 7 -->
    <_>
      <maxWeakCount>6</maxWeakCount>
      <stageThreshold>-1.4205678701400757e+000</stageThreshold>
      <weakClassifiers>
        <_>
          <internalNodes>
            0 -1 86 9.6790995448827744e-003</internalNodes>
          <leafValues>
            -7.8606963157653809e-001 1.8309858441352844e-001</leafValues></_>
        <_>
          <internalNodes>
            0 -1 36 -7.1924715302884579e-004</internalNodes>
          <leafValues>
            2.2236923873424530e-001 -7.7186340093612671e-001</leafValues></_>
        <_>
          <internalNodes>
            0 -1 14 -9.5789227634668350e-003</internalNodes>
          <leafValues>
            3.9486846327781677e-001 -5.5581951141357422e-001</leafValues></_>
        <_>
          <internalNodes>
            0 -1 61 2.5068863760679960e-004</internalNodes>
          <leafValues>
            2.1066157519817352e-001 -9.0992963314056396e-001</leafValues></_>
        <_>
          <internalNodes>
            0 -1 35 -4.9215124454349279e-004</internalNodes>
          <leafValues>
            -1. 1.7271745204925537e-001</leafValues></_>
        <_>
          <internalNodes>
            0 -1 73 -8.4408347902353853e-005</internalNodes>
          <leafValues>
            3.0980572104454041e-001 -5.7162702083587646e-001</leafValues></_></weakClassifiers></_>
    <!-- stage 8 -->
    <_>
      <maxWeakCount>6</maxWeakCount>
      <stageThreshold>-1.8334470987319946e+000</stageThreshold>
      <weakClassifiers>
        <_>
          <internalNodes>
            0 -1 71 -4.9253582255914807e-004</internalNodes>
          <leafValues>
            -3.6813187599182129e-001 -9.4911938905715942e-001</leafValues></_>
        <_>
          <internalNodes>
            0 -1 4 -7.2194272652268410e-003</internalNodes>
          <leafValues>
            2.6029863953590393e-001 -6.0087096691131592e-001</leafValues></_>
        <_>
          <internalNodes>
            0 -1 70 -1.8976860155817121e-004</internalNodes>
          <leafValues>
            2.4660375714302063e-001 -8.1255525350570679e-001</leafValues></_>
        <_>
          <internalNodes>
            0 -1 57 5.0691375508904457e-003</internalNodes>
          <leafValues>
            -4.7213906049728394e-001 5.0691485404968262e-001</leafValues></_>
        <_>
          <internalNodes>
            0 -1 5 5.5199612688738853e-005</internalNodes>
          <leafValues>
            -7.9762017726898193e-001 2.9878887534141541e-001</leafValues></_>
        <_>
          <internalNodes>
            0 -1 16 6.2611227622255683e-004</internalNodes>
          <leafValues>
            1.5871116518974304e-001 -9.2986267805099487e-001</leafValues></_></weakClassifiers></_>
    <!-- stage 9 -->
    <_>
      <maxWeakCount>6</maxWeakCount>
      <stageThreshold>-1.4971311092376709e+000</stageThreshold>
      <weakClassifiers>
        <_>
          <internalNodes>
            0 -1 8 1.0030478984117508e-001</internalNodes>
          <leafValues>
            -8.4146338701248169e-001 -3.0593606829643250e-001</leafValues></_>
        <_>
          <internalNodes>
            0 -1 0 4.8713460564613342e-003</internalNodes>
          <leafValues>
            -5.8407205343246460e-001 2.3386475443840027e-001</leafValues></_>
        <_>
          <internalNodes>
            0 -1 6 -1.2429412454366684e-003</internalNodes>
          <leafValues>
            -1. 1.5215282142162323e-001</leafValues></_>
        <_>
          <internalNodes>
            0 -1 89 -1.0652274359017611e-003</internalNodes>
          <leafValues>
            3.0899152159690857e-001 -5.3688228130340576e-001</leafValues></_>
        <_>
          <internalNodes>
            0 -1 62 5.4126000031828880e-004</internalNodes>
          <leafValues>
            1.5812635421752930e-001 -9.7791719436645508e-001</leafValues></_>
        <_>
          <internalNodes>
            0 -1 48 -9.8943605553358793e-004</internalNodes>
          <leafValues>
            -9.3351125717163086e-001 1.5500751137733459e-001</leafValues></_></weakClassifiers></_>
    <!-- stage 10 -->
    <_>
      <maxWeakCount>7</maxWeakCount>
      <stageThreshold>-1.6555687189102173e+000</stageThreshold>
      <weakClassifiers>
        <_>
          <internalNodes>
            0 -1 43 1.3360522687435150e-002</internalNodes>
          <leafValues>
            -7.7108430862426758e-001 4.6666666865348816e-001</leafValues></_>
        <_>
          <internalNodes>
            0 -1 53 -4.4319448061287403e-003</internalNodes>
          <leafValues>
            2.5987163186073303e-001 -5.7430696487426758e-001</leafValues></_>
        <_>
          <internalNodes>
            0 -1 30 -8.5139628499746323e-003</internalNodes>
          <leafValues>
            2.3580449819564819e-001 -6.8026429414749146e-001</leafValues></_>
        <_>
          <internalNodes>
            0 -1 27 -3.7134170270292088e-005</internalNodes>
          <leafValues>
            -8.0023676156997681e-001 1.9953404366970062e-001</leafValues></_>
        <_>
          <internalNodes>
            0 -1 82 -7.6004341244697571e-003</internalNodes>
          <leafValues>
            4.4876512885093689e-001 -3.7611413002014160e-001</leafValues></_>
        <_>
          <internalNodes>
            0 -1 49 1.4381262008100748e-004</internalNodes>
          <leafValues>
            2.2723507881164551e-001 -8.9655995368957520e-001</leafValues></_>
        <_>
          <internalNodes>
            0 -1 87 2.2653662599623203e-003</internalNodes>
          <leafValues>
            -3.0702045559883118e-001 6.5230154991149902e-001</leafValues></_></weakClassifiers></_>
    <!-- stage 11 -->
    <_>
      <maxWeakCount>8</maxWeakCount>
      <stageThreshold>-1.5140019655227661e+000</stageThreshold>
      <weakClassifiers>
        <_>
          <internalNodes>
            0 -1 33 4.1869401931762695e-002</internalNodes>
          <leafValues>
            -7.6783555746078491e-001 3.3333334326744080e-001</leafValues></_>
        <_>
          <internalNodes>
            0 -1 42 2.5488007813692093e-003</internalNodes>
          <leafValues>
            -5.2967745065689087e-001 2.7753913402557373e-001</leafValues></_>
        <_>
          <internalNodes>
            0 -1 85 1.0944269597530365e-003</internalNodes>
          <leafValues>
            -5.3903138637542725e-001 2.9869779944419861e-001</leafValues></_>
        <_>
          <internalNodes>
            0 -1 37 3.6698047188110650e-004</internalNodes>
          <leafValues>
            1.9388334453105927e-001 -7.4187242984771729e-001</leafValues></_>
        <_>
          <internalNodes>
            0 -1 40 9.1814072220586240e-005</internalNodes>
          <leafValues>
            1.9073234498500824e-001 -8.2171922922134399e-001</leafValues></_>
        <_>
          <internalNodes>
            0 -1 24 -1.4416443882510066e-003</internalNodes>
          <leafValues>
            2.9833891987800598e-001 -5.1267188787460327e-001</leafValues></_>
        <_>
          <internalNodes>
            0 -1 38 4.7660414129495621e-003</internalNodes>
          <leafValues>
            -4.6833905577659607e-001 4.2320868372917175e-001</leafValues></_>
        <_>
          <internalNodes>
            0 -1 21 -3.1754747033119202e-004</internalNodes>
          <leafValues>
            -6.7834460735321045e-001 2.0595343410968781e-001</leafValues></_></weakClassifiers></_>
    <!-- stage 12 -->
    <_>
      <maxWeakCount>7</maxWeakCount>
      <stageThreshold>-1.6959954500198364e+000</stageThreshold>
      <weakClassifiers>
        <_>
          <internalNodes>
            0 -1 91 1.1780180502682924e-003</internalNodes>
          <leafValues>
            -7.8244745731353760e-001 2.1212121844291687e-001</leafValues></_>
        <_>
          <internalNodes>
            0 -1 81 5.6188239250332117e-004</internalNodes>
          <leafValues>
            -8.0045968294143677e-001 4.6375259757041931e-002</leafValues></_>
        <_>
          <internalNodes>
            0 -1 26 -5.9131800662726164e-004</internalNodes>
          <leafValues>
            -7.8632038831710815e-001 1.7859892547130585e-001</leafValues></_>
        <_>
          <internalNodes>
            0 -1 52 -9.4758003950119019e-002</internalNodes>
          <leafValues>
            -7.9029309749603271e-001 1.7660120129585266e-001</leafValues></_>
        <_>
          <internalNodes>
            0 -1 88 -6.6468422301113605e-003</internalNodes>
          <leafValues>
            6.7492347955703735e-001 -2.4259576201438904e-001</leafValues></_>
        <_>
          <internalNodes>
            0 -1 39 -2.1400320110842586e-004</internalNodes>
          <leafValues>
            -8.8982224464416504e-001 1.9996495544910431e-001</leafValues></_>
        <_>
          <internalNodes>
            0 -1 79 5.0887772813439369e-003</internalNodes>
          <leafValues>
            -3.0757331848144531e-001 6.2486946582794189e-001</leafValues></_></weakClassifiers></_>
    <!-- stage 13 -->
    <_>
      <maxWeakCount>8</maxWeakCount>
      <stageThreshold>-1.3009972572326660e+000</stageThreshold>
      <weakClassifiers>
        <_>
          <internalNodes>
            0 -1 12 4.9550190567970276e-002</internalNodes>
          <leafValues>
            -7.5866186618804932e-001 4.2105263471603394e-001</leafValues></_>
        <_>
          <internalNodes>
            0 -1 66 1.2555210851132870e-003</internalNodes>
          <leafValues>
            -4.6210053563117981e-001 3.8446030020713806e-001</leafValues></_>
        <_>
          <internalNodes>
            0 -1 28 1.5343105187639594e-003</internalNodes>
          <leafValues>
            1.8246671557426453e-001 -7.8432762622833252e-001</leafValues></_>
        <_>
          <internalNodes>
            0 -1 72 4.7556951176375151e-004</internalNodes>
          <leafValues>
            -6.5511792898178101e-001 2.7887716889381409e-001</leafValues></_>
        <_>
          <internalNodes>
            0 -1 45 -5.8657838962972164e-004</internalNodes>
          <leafValues>
            -7.3053044080734253e-001 1.7826345562934875e-001</leafValues></_>
        <_>
          <internalNodes>
            0 -1 65 3.3384943380951881e-003</internalNodes>
          <leafValues>
            -2.1480363607406616e-001 6.7071652412414551e-001</leafValues></_>
        <_>
          <internalNodes>
            0 -1 2 1.5696556074544787e-003</internalNodes>
          <leafValues>
            2.0293708145618439e-001 -8.5943412780761719e-001</leafValues></_>
        <_>
          <internalNodes>
            0 -1 50 8.8670162949711084e-004</internalNodes>
          <leafValues>
            -4.0595173835754395e-001 3.5439550876617432e-001</leafValues></_></weakClassifiers></_>
    <!-- stage 14 -->
    <_>
      <maxWeakCount>7</maxWeakCount>
      <stageThreshold>-1.2117646932601929e+000</stageThreshold>
      <weakClassifiers>
        <_>
          <internalNodes>
            0 -1 7 -2.2807190194725990e-002</internalNodes>
          <leafValues>
            1.5254236757755280e-001 -7.6960784196853638e-001</leafValues></_>
        <_>
          <internalNodes>
            0 -1 80 8.8947964832186699e-004</internalNodes>
          <leafValues>
            -7.6331090927124023e-001 1.8947662785649300e-002</leafValues></_>
        <_>
          <internalNodes>
            0 -1 10 -1.7977386596612632e-004</internalNodes>
          <leafValues>
            -7.2084814310073853e-001 1.9613181054592133e-001</leafValues></_>
        <_>
          <internalNodes>
            0 -1 90 1.6612552572041750e-003</internalNodes>
          <leafValues>
            -2.7401903271675110e-001 5.7435989379882813e-001</leafValues></_>
        <_>
          <internalNodes>
            0 -1 23 9.9495293397922069e-005</internalNodes>
          <leafValues>
            1.9961158931255341e-001 -7.3395299911499023e-001</leafValues></_>
        <_>
          <internalNodes>
            0 -1 78 4.0331939235329628e-003</internalNodes>
          <leafValues>
            1.9245718419551849e-001 -7.5157266855239868e-001</leafValues></_>
        <_>
          <internalNodes>
            0 -1 34 2.5041121989488602e-004</internalNodes>
          <leafValues>
            1.8095351755619049e-001 -7.7528607845306396e-001</leafValues></_></weakClassifiers></_></stages>
  <features>
    <_>
      <rects>
        <_>
          0 2 12 7 -1.</_>
        <_>
          3 2 6 7 2.</_></rects>
      <tilted>0</tilted></_>
    <_>
      <rects>
        <_>
          0 8 32 5 -1.</_>
        <_>
          16 8 16 5 2.</_></rects>
      <tilted>0</tilted></_>
    <_>
      <rects>
        <_>
          0 13 7 3 -1.</_>
        <_>
          0 14 7 1 3.</_></rects>
      <tilted>0</tilted></_>
    <_>
      <rects>
        <_>
          1 1 28 2 -1.</_>
        <_>
          1 2 28 1 2.</_></rects>
      <tilted>0</tilted></_>
    <_>
      <rects>
        <_>
          1 3 6 10 -1.</_>
        <_>
          1 3 3 5 2.</_>
        <_>
          4 8 3 5 2.</_></rects>
      <tilted>0</tilted></_>
    <_>
      <rects>
        <_>
          1 13 2 1 -1.</_>
        <_>
          1 13 1 1 2.</_></rects>
      <tilted>1</tilted></_>
    <_>
      <rects>
        <_>
          1 13 4 3 -1.</_>
        <_>
          1 14 4 1 3.</_></rects>
      <tilted>0</tilted></_>
    <_>
      <rects>
        <_>
          1 16 16 2 -1.</_>
        <_>
          5 16 8 2 2.</_></rects>
      <tilted>0</tilted></_>
    <_>
      <rects>
        <_>
          3 0 20 8 -1.</_>
        <_>
          3 2 20 4 2.</_></rects>
      <tilted>0</tilted></_>
    <_>
      <rects>
        <_>
          3 10 3 2 -1.</_>
        <_>
          4 10 1 2 3.</_></rects>
      <tilted>0</tilted></_>
    <_>
      <rects>
        <_>
          3 12 1 3 -1.</_>
        <_>
          2 13 1 1 3.</_></rects>
      <tilted>1</tilted></_>
    <_>
      <rects>
        <_>
          4 1 25 4 -1.</_>
        <_>
          4 3 25 2 2.</_></rects>
      <tilted>0</tilted></_>
    <_>
      <rects>
        <_>
          4 3 6 4 -1.</_>
        <_>
          6 5 2 4 3.</_></rects>
      <tilted>1</tilted></_>
    <_>
      <rects>
        <_>
          4 8 14 10 -1.</_>
        <_>
          4 13 14 5 2.</_></rects>
      <tilted>0</tilted></_>
    <_>
      <rects>
        <_>
          4 14 9 4 -1.</_>
        <_>
          4 16 9 2 2.</_></rects>
      <tilted>0</tilted></_>
    <_>
      <rects>
        <_>
          5 0 16 6 -1.</_>
        <_>
          5 3 16 3 2.</_></rects>
      <tilted>0</tilted></_>
    <_>
      <rects>
        <_>
          5 12 1 4 -1.</_>
        <_>
          4 13 1 2 2.</_></rects>
      <tilted>1</tilted></_>
    <_>
      <rects>
        <_>
          6 0 18 12 -1.</_>
        <_>
          6 3 18 6 2.</_></rects>
      <tilted>0</tilted></_>
    <_>
      <rects>
        <_>
          6 0 26 6 -1.</_>
        <_>
          6 3 26 3 2.</_></rects>
      <tilted>0</tilted></_>
    <_>
      <rects>
        <_>
          6 8 1 2 -1.</_>
        <_>
          6 9 1 1 2.</_></rects>
      <tilted>0</tilted></_>
    <_>
      <rects>
        <_>
          6 10 4 2 -1.</_>
        <_>
          6 11 4 1 2.</_></rects>
      <tilted>0</tilted></_>
    <_>
      <rects>
        <_>
          6 12 2 4 -1.</_>
        <_>
          6 13 2 2 2.</_></rects>
      <tilted>0</tilted></_>
    <_>
      <rects>
        <_>
          7 0 16 12 -1.</_>
        <_>
          7 3 16 6 2.</_></rects>
      <tilted>0</tilted></_>
    <_>
      <rects>
        <_>
          7 6 4 1 -1.</_>
        <_>
          8 6 2 1 2.</_></rects>
      <tilted>0</tilted></_>
    <_>
      <rects>
        <_>
          7 6 6 2 -1.</_>
        <_>
          7 7 6 1 2.</_></rects>
      <tilted>0</tilted></_>
    <_>
      <rects>
        <_>
          7 7 4 6 -1.</_>
        <_>
          8 7 2 6 2.</_></rects>
      <tilted>0</tilted></_>
    <_>
      <rects>
        <_>
          7 9 3 3 -1.</_>
        <_>
          6 10 3 1 3.</_></rects>
      <tilted>1</tilted></_>
    <_>
      <rects>
        <_>
          8 0 1 2 -1.</_>
        <_>
          8 1 1 1 2.</_></rects>
      <tilted>0</tilted></_>
    <_>
      <rects>
        <_>
          8 0 8 2 -1.</_>
        <_>
          8 0 8 1 2.</_></rects>
      <tilted>1</tilted></_>
    <_>
      <rects>
        <_>
          8 0 16 12 -1.</_>
        <_>
          8 3 16 6 2.</_></rects>
      <tilted>0</tilted></_>
    <_>
      <rects>
        <_>
          8 8 24 2 -1.</_>
        <_>
          8 9 24 1 2.</_></rects>
      <tilted>0</tilted></_>
    <_>
      <rects>
        <_>
          8 10 1 3 -1.</_>
        <_>
          8 11 1 1 3.</_></rects>
      <tilted>0</tilted></_>
    <_>
      <rects>
        <_>
          9 3 20 12 -1.</_>
        <_>
          9 9 20 6 2.</_></rects>
      <tilted>0</tilted></_>
    <_>
      <rects>
        <_>
          9 15 12 3 -1.</_>
        <_>
          15 15 6 3 2.</_></rects>
      <tilted>0</tilted></_>
    <_>
      <rects>
        <_>
          10 6 4 4 -1.</_>
        <_>
          11 6 2 4 2.</_></rects>
      <tilted>0</tilted></_>
    <_>
      <rects>
        <_>
          10 6 2 3 -1.</_>
        <_>
          10 7 2 1 3.</_></rects>
      <tilted>0</tilted></_>
    <_>
      <rects>
        <_>
          10 6 3 2 -1.</_>
        <_>
          10 7 3 1 2.</_></rects>
      <tilted>0</tilted></_>
    <_>
      <rects>
        <_>
          10 7 3 8 -1.</_>
        <_>
          11 7 1 8 3.</_></rects>
      <tilted>0</tilted></_>
    <_>
      <rects>
        <_>
          11 4 6 6 -1.</_>
        <_>
          13 6 2 6 3.</_></rects>
      <tilted>1</tilted></_>
    <_>
      <rects>
        <_>
          11 6 3 3 -1.</_>
        <_>
          12 6 1 3 3.</_></rects>
      <tilted>0</tilted></_>
    <_>
      <rects>
        <_>
          11 7 3 1 -1.</_>
        <_>
          12 7 1 1 3.</_></rects>
      <tilted>0</tilted></_>
    <_>
      <rects>
        <_>
          11 12 2 3 -1.</_>
        <_>
          11 12 1 3 2.</_></rects>
      <tilted>1</tilted></_>
    <_>
      <rects>
        <_>
          11 13 14 2 -1.</_>
        <_>
          11 13 7 1 2.</_>
        <_>
          18 14 7 1 2.</_></rects>
      <tilted>0</tilted></_>
    <_>
      <rects>
        <_>
          11 15 6 3 -1.</_>
        <_>
          14 15 3 3 2.</_></rects>
      <tilted>0</tilted></_>
    <_>
      <rects>
        <_>
          12 6 3 3 -1.</_>
        <_>
          13 7 1 1 9.</_></rects>
      <tilted>0</tilted></_>
    <_>
      <rects>
        <_>
          12 8 3 3 -1.</_>
        <_>
          11 9 3 1 3.</_></rects>
      <tilted>1</tilted></_>
    <_>
      <rects>
        <_>
          13 7 1 2 -1.</_>
        <_>
          13 8 1 1 2.</_></rects>
      <tilted>0</tilted></_>
    <_>
      <rects>
        <_>
          13 7 5 2 -1.</_>
        <_>
          13 8 5 1 2.</_></rects>
      <tilted>0</tilted></_>
    <_>
      <rects>
        <_>
          13 8 3 3 -1.</_>
        <_>
          14 9 1 1 9.</_></rects>
      <tilted>0</tilted></_>
    <_>
      <rects>
        <_>
          13 9 3 1 -1.</_>
        <_>
          14 9 1 1 3.</_></rects>
      <tilted>0</tilted></_>
    <_>
      <rects>
        <_>
          13 9 12 2 -1.</_>
        <_>
          16 9 6 2 2.</_></rects>
      <tilted>0</tilted></_>
    <_>
      <rects>
        <_>
          13 12 2 2 -1.</_>
        <_>
          13 13 2 1 2.</_></rects>
      <tilted>0</tilted></_>
    <_>
      <rects>
        <_>
          14 0 18 12 -1.</_>
        <_>
          23 0 9 12 2.</_></rects>
      <tilted>0</tilted></_>
    <_>
      <rects>
        <_>
          14 0 12 3 -1.</_>
        <_>
          14 1 12 1 3.</_></rects>
      <tilted>0</tilted></_>
    <_>
      <rects>
        <_>
          14 5 3 3 -1.</_>
        <_>
          15 6 1 1 9.</_></rects>
      <tilted>0</tilted></_>
    <_>
      <rects>
        <_>
          14 5 5 2 -1.</_>
        <_>
          14 6 5 1 2.</_></rects>
      <tilted>0</tilted></_>
    <_>
      <rects>
        <_>
          14 6 3 5 -1.</_>
        <_>
          15 6 1 5 3.</_></rects>
      <tilted>0</tilted></_>
    <_>
      <rects>
        <_>
          14 6 12 7 -1.</_>
        <_>
          18 6 4 7 3.</_></rects>
      <tilted>0</tilted></_>
    <_>
      <rects>
        <_>
          14 7 3 4 -1.</_>
        <_>
          15 7 1 4 3.</_></rects>
      <tilted>0</tilted></_>
    <_>
      <rects>
        <_>
          15 4 3 11 -1.</_>
        <_>
          16 4 1 11 3.</_></rects>
      <tilted>0</tilted></_>
    <_>
      <rects>
        <_>
          15 5 3 5 -1.</_>
        <_>
          16 5 1 5 3.</_></rects>
      <tilted>0</tilted></_>
    <_>
      <rects>
        <_>
          15 7 3 3 -1.</_>
        <_>
          16 7 1 3 3.</_></rects>
      <tilted>0</tilted></_>
    <_>
      <rects>
        <_>
          15 8 2 3 -1.</_>
        <_>
          15 9 2 1 3.</_></rects>
      <tilted>0</tilted></_>
    <_>
      <rects>
        <_>
          15 9 1 2 -1.</_>
        <_>
          15 10 1 1 2.</_></rects>
      <tilted>0</tilted></_>
    <_>
      <rects>
        <_>
          15 10 14 1 -1.</_>
        <_>
          22 10 7 1 2.</_></rects>
      <tilted>0</tilted></_>
    <_>
      <rects>
        <_>
          15 14 10 2 -1.</_>
        <_>
          15 14 5 1 2.</_>
        <_>
          20 15 5 1 2.</_></rects>
      <tilted>0</tilted></_>
    <_>
      <rects>
        <_>
          16 3 2 2 -1.</_>
        <_>
          16 3 1 2 2.</_></rects>
      <tilted>1</tilted></_>
    <_>
      <rects>
        <_>
          16 6 2 2 -1.</_>
        <_>
          16 6 1 2 2.</_></rects>
      <tilted>1</tilted></_>
    <_>
      <rects>
        <_>
          16 6 2 2 -1.</_>
        <_>
          16 7 2 1 2.</_></rects>
      <tilted>0</tilted></_>
    <_>
      <rects>
        <_>
          16 8 2 2 -1.</_>
        <_>
          16 9 2 1 2.</_></rects>
      <tilted>0</tilted></_>
    <_>
      <rects>
        <_>
          16 9 1 2 -1.</_>
        <_>
          16 10 1 1 2.</_></rects>
      <tilted>0</tilted></_>
    <_>
      <rects>
        <_>
          17 6 2 2 -1.</_>
        <_>
          17 7 2 1 2.</_></rects>
      <tilted>0</tilted></_>
    <_>
      <rects>
        <_>
          17 7 1 2 -1.</_>
        <_>
          17 7 1 1 2.</_></rects>
      <tilted>1</tilted></_>
    <_>
      <rects>
        <_>
          18 0 4 3 -1.</_>
        <_>
          18 1 4 1 3.</_></rects>
      <tilted>0</tilted></_>
    <_>
      <rects>
        <_>
          18 1 6 4 -1.</_>
        <_>
          18 3 6 2 2.</_></rects>
      <tilted>0</tilted></_>
    <_>
      <rects>
        <_>
          18 5 3 6 -1.</_>
        <_>
          19 5 1 6 3.</_></rects>
      <tilted>0</tilted></_>
    <_>
      <rects>
        <_>
          18 6 1 2 -1.</_>
        <_>
          18 6 1 1 2.</_></rects>
      <tilted>1</tilted></_>
    <_>
      <rects>
        <_>
          18 6 3 5 -1.</_>
        <_>
          19 6 1 5 3.</_></rects>
      <tilted>0</tilted></_>
    <_>
      <rects>
        <_>
          19 0 11 2 -1.</_>
        <_>
          19 0 11 1 2.</_></rects>
      <tilted>1</tilted></_>
    <_>
      <rects>
        <_>
          19 4 6 13 -1.</_>
        <_>
          21 4 2 13 3.</_></rects>
      <tilted>0</tilted></_>
    <_>
      <rects>
        <_>
          19 5 2 2 -1.</_>
        <_>
          19 5 2 1 2.</_></rects>
      <tilted>1</tilted></_>
    <_>
      <rects>
        <_>
          19 6 1 2 -1.</_>
        <_>
          19 6 1 1 2.</_></rects>
      <tilted>1</tilted></_>
    <_>
      <rects>
        <_>
          20 0 6 8 -1.</_>
        <_>
          20 0 3 4 2.</_>
        <_>
          23 4 3 4 2.</_></rects>
      <tilted>0</tilted></_>
    <_>
      <rects>
        <_>
          21 9 3 2 -1.</_>
        <_>
          21 10 3 1 2.</_></rects>
      <tilted>0</tilted></_>
    <_>
      <rects>
        <_>
          22 0 10 5 -1.</_>
        <_>
          22 0 5 5 2.</_></rects>
      <tilted>1</tilted></_>
    <_>
      <rects>
        <_>
          22 2 3 3 -1.</_>
        <_>
          21 3 3 1 3.</_></rects>
      <tilted>1</tilted></_>
    <_>
      <rects>
        <_>
          23 2 6 9 -1.</_>
        <_>
          25 2 2 9 3.</_></rects>
      <tilted>0</tilted></_>
    <_>
      <rects>
        <_>
          23 5 6 3 -1.</_>
        <_>
          25 5 2 3 3.</_></rects>
      <tilted>0</tilted></_>
    <_>
      <rects>
        <_>
          24 3 8 7 -1.</_>
        <_>
          26 3 4 7 2.</_></rects>
      <tilted>0</tilted></_>
    <_>
      <rects>
        <_>
          24 7 3 2 -1.</_>
        <_>
          24 8 3 1 2.</_></rects>
      <tilted>0</tilted></_>
    <_>
      <rects>
        <_>
          25 2 3 9 -1.</_>
        <_>
          26 2 1 9 3.</_></rects>
      <tilted>0</tilted></_>
    <_>
      <rects>
        <_>
          27 2 3 3 -1.</_>
        <_>
          28 2 1 3 3.</_></rects>
      <tilted>0</tilted></_></features></cascade>
</opencv_storage>
